aln 0.14716 -0.27454 1.4976 -0.49955 -1.7786 0.2806 0.66649 -0.68792 -0.1292 -0.3646 -0.24982 0.0086359 0.4422 -0.45766 -1.6121 -0.46971 -0.18991 0.73395 0.41995 0.47419 -0.83145 0.027995 0.709 -0.31461 0.10562 0.34094 -0.64771 -0.1346 -1.1545 -0.041068 -0.72339 -0.28223 -0.11605 0.73074 -0.38035 -0.22961 -0.2761 -0.98899 0.62114 -0.67792 1.2354 -0.66287 0.63238 -0.44492 -0.34207 -0.21274 0.21149 0.028831 -0.014695 -0.27769
donum -0.5748 -0.27695 -0.20022 -1.3352 -0.027246 -0.54542 0.38217 -0.20026 0.36174 0.8042 0.6065 0.27356 0.94202 -0.55969 0.15072 -0.90572 -0.32012 0.70342 0.9749 1.2196 -0.61774 -0.33837 -0.030816 0.023072 0.1798 1.3232 0.052416 0.24502 -0.16917 -0.53973 -0.74322 -0.048642 -0.020903 0.47874 -0.85433 0.65919 0.36945 -1.079 -0.14908 -0.86655 0.19188 -1.5188 -0.55681 -0.64451 -0.35364 -0.7429 0.29855 0.63245 0.32452 -0.067453
all 0.19253 0.10006 0.063798 -0.087664 0.52217 0.39105 -0.41975 -0.45671 -0.34053 -0.11175 0.014754 0.31734 -0.50853 -0.1156 0.74303 0.097618 0.34407 -0.1213 -0.16938 -0.84088 -0.11231 0.40602 0.76801 0.091138 0.10782 -1.2673 -0.57709 -0.36208 0.34824 -0.75458 4.0426 0.94967 -0.22668 -0.35777 0.3413 0.13072 0.23045 -0.036997 -0.25889 0.12977 -0.39031 -0.049607 0.45766 0.56782 -0.46165 0.41933 -0.5492 0.081191 -0.30485 -0.30513
chinese -0.51742 0.40543 -0.35109 0.78151 0.33735 -0.79946 -0.094045 -0.19927 -0.25549 -0.043867 0.64488 0.051654 1.1569 0.49355 0.17844 -0.38467 -0.74389 0.6078 0.1081 -0.097775 0.8682 -0.22863 0.0017747 -0.50405 1.1444 -2.2063 -0.48134 -0.93773 -0.94641 -0.32139 3.6555 0.36522 0.021378 0.29677 -0.32398 0.045491 -0.63062 0.41415 -1.2073 0.34021 -0.7668 -0.28595 1.3208 -0.16975 1.7651 -0.46696 -0.71656 0.29103 0.49508 -1.1306
codo 0.024432 -0.33448 0.66147 1.0521 -1.3316 -0.34541 -0.065211 -0.59519 1.4827 0.95561 -0.16374 0.40471 -0.79419 -0.65841 -0.89209 0.025969 0.37952 0.42338 0.42489 0.16573 -0.82336 -0.45922 0.65375 -0.017213 -0.068752 1.1309 0.19122 -0.11409 -0.0088686 0.67654 -1.4965 -0.66924 -0.35934 0.79117 -0.052572 -0.72095 -0.45547 0.27119 -0.28934 0.26789 0.72821 -0.77322 -0.95764 0.312 0.73928 0.71536 -0.40662 -0.021551 0.281 0.16885
mackerel 0.90883 0.1615 -1.6618 -0.40843 -0.063979 -0.002175 -0.39633 0.045762 0.51539 0.10878 0.39305 2.4864 1.5824 0.14404 0.60618 -0.22559 0.29314 0.39357 -1.4844 -0.47767 -0.59173 -1.3124 0.94309 0.93945 -0.094702 -0.43338 0.25125 0.8836 0.60478 -0.247 -0.53706 0.2331 0.5988 1.6586 0.14426 -0.2816 -0.55999 -1.3008 -0.32964 0.51763 0.39764 0.61038 0.57255 0.66571 0.35234 0.22913 -0.63471 -0.6123 -0.080941 -0.30542
lack 0.10748 0.26813 -0.24416 -0.17348 -0.20017 0.30635 0.26825 0.24497 0.61119 0.30532 0.47755 0.19198 -0.19302 -0.77959 -0.079653 0.091412 0.023193 -0.16392 0.52846 -1.0231 -0.47919 0.45065 -0.0099728 -0.7589 0.25568 -1.0886 -0.52393 0.33057 0.66016 0.89 3.319 0.65721 0.46281 -1.5771 0.0017418 0.46383 0.063591 -0.090265 -0.20472 -0.16222 -0.038613 -0.146 -0.10952 0.59137 0.07375 -0.057987 -0.62413 0.99956 0.19043 -0.0815
dollar -0.12318 0.33984 0.85825 -0.31793 -0.033968 -1.1123 0.10244 -0.4929 -0.26084 1.0955 -0.62132 0.13373 0.084462 0.020772 0.79556 0.54846 0.027878 -0.3913 -1.0219 0.10898 1.3353 -0.53507 -0.73767 -1.5169 -0.64226 -1.4995 0.65463 0.46814 0.0095991 0.91297 3.1169 0.12388 1.2138 1.4885 -0.15059 -0.91252 -0.62391 -0.35212 0.0044067 -2.1639 -0.52815 0.13463 1.2257 0.02624 0.19675 -0.5044 0.28761 0.62596 0.27204 -0.15836
worms 2.4552 -1.1193 -0.2624 -0.45285 0.53254 0.11449 0.29894 -0.99017 -0.48006 -0.3047 0.24692 1.0371 0.77649 0.29525 0.080723 0.4168 -0.061266 0.16696 -0.90265 0.013491 -0.22346 -1.1262 1.255 0.35048 -0.23149 0.1346 -0.29872 -0.029794 0.085179 -0.29018 0.65649 0.22798 -0.31994 0.14344 -0.98085 0.20901 -0.73166 0.15305 0.85559 -0.10387 0.35961 -0.10344 -0.1603 1.1323 0.96696 0.40357 0.54597 -1.3772 0.31251 -0.075031
month 0.46281 0.00041144 0.32206 0.052119 0.2574 -0.20206 -0.95958 0.080315 0.07142 -0.18973 -0.29623 -1.0933 -0.39617 -0.19416 1.6158 0.20214 -0.89728 -0.62867 -0.7007 0.19352 0.85183 0.11041 0.15913 -0.56004 -0.62643 -1.7449 0.51275 0.025222 -0.40847 0.80248 3.42 0.31542 -0.3881 0.46212 0.28418 -0.60805 0.27313 0.033328 0.02098 -0.49465 -0.86607 0.31712 -0.0041658 -0.38582 0.071257 -0.26801 -0.21712 0.61648 -0.23407 -0.13272
uzbekistan -0.28626 0.50746 0.59975 1.2841 -0.0067222 -0.82225 1.0127 0.18888 0.17532 0.44784 1.0612 -1.1818 -0.07218 -0.099865 0.17602 0.73371 -0.011952 -0.3683 0.35115 1.8421 -0.74007 -0.42983 0.70834 0.0019885 -0.5599 -1.2182 1.2483 -0.11756 0.040782 -0.36312 1.186 0.97334 -0.21021 -0.35874 -0.83752 0.27478 -0.5868 0.756 -1.3282 0.74377 0.030508 0.44096 0.91429 -1.0793 0.066311 0.39243 -0.65298 0.094275 -0.97933 -1.4303
ge 0.57533 -0.19311 1.0192 1.3442 -0.45002 0.17898 0.092341 -0.24624 -0.3338 -0.19503 0.34686 1.1494 -0.61213 -0.28107 -0.45875 0.19205 -1.0207 1.3023 0.46064 -0.88457 0.91598 -0.64067 -0.070159 -1.1997 0.34867 -0.59217 -0.16751 -0.41814 -0.63882 -0.01023 1.3173 0.26376 0.71239 0.75469 0.22561 -0.82964 -0.18237 0.81727 0.71987 -0.033994 -0.196 -0.55895 -0.0045157 -0.017203 0.21813 -0.086599 -0.51533 0.25333 0.17037 1.0551
mile 0.2239 1.3072 0.64866 0.27796 0.43548 0.29628 -0.29534 -0.77053 0.81238 -0.91393 -0.97766 -2.0684 -0.20831 -1.0985 0.20087 -0.17046 0.98169 0.88962 -1.6925 -0.009196 -0.41214 0.21515 -0.47877 0.080024 0.32619 -0.32052 0.20442 0.88858 0.95905 -0.27638 2.2801 -0.10575 -0.32096 1.1558 0.06112 -0.34475 0.35645 0.04501 0.18344 0.10263 -0.036582 -0.43363 0.21563 0.17002 -1.6162 -0.97617 0.7642 -1.1101 -0.13368 -0.42455
go 0.14828 0.17761 0.42346 -0.31489 0.32273 -0.72413 -0.78955 0.49214 -0.20693 -0.00055088 -0.47877 0.28853 -0.57376 0.27217 1.1129 0.57808 0.69321 -0.28652 -0.054545 -0.61826 0.17227 0.29263 0.38184 0.62186 0.55461 -1.7411 -0.28802 -0.1714 0.74743 -1.0135 3.3596 1.137 -1.0028 0.17685 -0.0061795 -0.063491 0.19077 0.044046 0.38228 -0.41607 -0.50359 -0.083803 0.17508 0.4042 0.077324 0.17415 0.12541 -0.2182 0.12971 0.32953
cyprus 0.72777 0.23947 -0.66363 0.61138 0.0082807 0.19379 -0.31387 0.56139 -0.75366 -1.0778 0.93748 -0.24814 0.15737 -0.15673 0.72806 0.93681 0.80451 -0.21953 0.04383 0.84399 -0.10482 0.039487 -0.86245 0.49546 0.75968 -0.87402 1.2557 0.091065 -0.40781 0.16886 1.7486 0.17777 -1.1234 0.6368 -0.068762 -0.46291 -0.065736 -0.34523 -0.95305 0.15359 -0.006031 -0.2491 0.97985 -1.0796 -0.87539 0.23959 -0.1314 1.4838 -0.080409 -1.2146
scr -0.53679 -0.37059 0.096927 0.40939 -0.85464 -0.51998 1.4398 -0.76181 -0.35535 -0.27725 -0.03854 0.48878 0.22842 0.79484 0.074022 1.0005 -0.31431 0.56317 0.28683 0.75771 1.1259 -1.0029 0.3183 0.86143 -0.39782 0.42415 0.17135 0.052473 -0.18243 -0.19364 -0.20735 -0.5204 0.59155 0.2916 0.16796 -0.16869 0.35397 -0.97833 0.62452 0.1339 -0.24316 -0.67206 0.99124 0.36065 -0.013297 0.38952 1.0336 0.99025 0.8689 0.70209
millisecond 0.3879 -0.42604 0.7125 0.47685 0.3817 -0.23681 0.30949 0.57908 -0.27862 0.6648 0.29384 -0.6538 1.428 0.79266 0.61902 -0.0054531 -0.38956 0.60185 -0.81747 0.058468 -0.38801 -0.41686 1.0981 0.18165 1.4484 1.0029 -0.18492 0.30349 0.81103 0.3218 -0.70632 -0.17629 -0.52573 0.54091 0.7137 0.19641 -0.14794 1.0515 0.29952 0.42533 0.092746 0.61009 -0.83708 0.6271 -0.93653 -0.52679 1.5366 1.4358 -0.0073968 0.11625
chain 0.95607 -0.40747 -0.42681 0.88157 0.66883 0.51063 -0.43322 -0.32858 1.2928 -0.0054451 0.36996 -0.46465 -0.36631 0.41422 -0.15335 0.74171 -0.28812 0.031857 -0.27462 -0.67184 0.97322 -0.63198 -0.88738 0.99409 -1.3525 -0.76601 -0.99972 0.22176 0.73153 -0.44839 2.3403 -0.24483 0.7198 0.59027 0.032803 -0.38372 -0.17876 -0.37989 0.46331 0.51356 0.036602 0.20888 -0.054748 0.32465 0.45475 0.31646 -0.13716 -0.69855 -0.38432 0.38248
vietnamese 0.095928 -0.49785 -0.42438 -0.45288 0.12312 -1.0507 -0.012556 -0.33368 -0.58667 -0.49829 0.53752 -0.2781 1.4119 -0.17827 0.43475 -1.0401 -0.51084 0.69211 0.73322 0.92726 -0.35072 -0.42975 0.43993 -0.09817 0.035404 -1.2076 -0.13636 -0.58413 -0.49284 -0.24436 2.2779 0.2694 -0.43905 1.4666 -0.34383 0.42586 -0.51494 0.3097 -0.83288 0.43271 -0.75993 0.16167 1.4612 -0.78615 1.2402 -1.4009 -0.84341 -0.044845 0.28411 -0.6233
electricity 0.34739 -0.51304 1.5783 0.30715 -0.95058 0.0038392 -0.2929 -0.031382 0.59172 0.73243 0.64926 -0.36617 0.82048 -0.3447 -0.038948 0.88994 0.058277 1.1489 0.41784 -1.0263 1.4297 -0.56673 -0.45148 -0.15305 0.32728 -0.68322 0.75472 0.020632 1.1913 1.3099 3.1556 0.16811 0.14939 0.05429 -0.12972 0.24198 -0.073268 0.14937 1.1438 0.90986 0.15519 0.48068 0.063123 -0.080451 -1.0193 1.0625 -1.1411 0.16931 0.21885 -0.40347
palladium -0.56863 0.06129 -0.25905 0.33638 0.65359 -0.26442 0.41227 -0.28882 -0.3109 1.8257 0.83014 -0.3024 0.45577 0.017272 1.0044 1.2077 -0.16657 0.41866 -1.6087 0.26519 2.515 -0.62702 -0.023088 -0.15423 -0.96716 0.18829 0.29063 -0.032281 0.93005 0.34643 0.7566 -0.60483 1.2099 0.74984 0.51761 -0.62162 0.26354 -0.073631 0.11324 -0.3112 0.15737 -0.67303 0.47001 -0.27412 1.2416 0.62456 0.11526 -0.324 -0.57023 -0.41936
father 0.095496 0.70418 -0.40777 -0.80844 1.256 0.77071 -1.0695 0.76847 -0.87813 -0.0080954 0.43884 1.0476 -0.45071 -0.58931 0.83246 -0.038442 -0.73533 0.26389 0.12617 0.57623 -0.23866 1.0922 -0.3367 0.081537 0.84798 -2.4795 -0.40351 -0.84087 0.12034 0.29074 1.9711 -0.50886 -0.45977 -0.13617 0.55613 0.22924 -0.18947 0.43544 0.65151 0.043537 -0.1162 0.72196 -0.66163 -0.17272 0.27367 -0.28169 -0.82025 -1.5089 0.052787 -0.035579
vef -0.76596 -0.70058 0.31647 -0.63452 -1.296 0.28879 0.29198 0.47637 -1.2267 0.1428 0.68006 -0.10211 0.15215 0.63003 -0.40215 0.39182 -0.22458 1.6365 0.54576 0.91643 0.35568 -0.21153 -0.69502 0.066164 0.41008 0.66874 -0.3856 0.16474 -0.57712 -0.85901 -1.0989 0.57369 0.64903 1.3761 0.2897 0.56815 0.86537 -0.34267 -0.51803 -0.48947 -0.35352 -1.4707 -0.14932 0.021487 -0.43468 -0.37446 0.17313 1.211 -0.29098 -0.87859
iraqi 0.22712 -0.33519 1.1371 -0.80193 1.1734 -0.74322 0.32383 0.58686 0.40827 -0.90861 -0.12635 -1.2452 -0.31935 0.46895 -0.17267 0.43866 0.15 -0.066947 0.54202 0.53245 0.32437 0.99024 0.82105 -0.30304 -0.83682 -2.0646 -0.59609 -0.20574 0.64127 1.1175 2.5988 0.16149 -1.0711 -0.33985 0.53471 1.0386 -0.081631 -0.44264 -1.0786 0.61782 -0.066507 0.51043 0.48303 -0.76115 0.45024 -0.19201 -1.2047 1.3406 -0.70946 -0.74888
hryvnia -0.85445 -0.27382 0.94097 0.38965 0.3716 -0.38095 0.66827 -0.32197 -0.72928 0.83388 0.70252 0.56887 0.98757 0.53516 0.50405 -0.03242 0.12667 -0.1489 -0.17909 0.38257 -0.2591 -2.0124 -0.24143 -0.5678 -0.3807 0.25531 0.49709 0.22427 0.063131 0.46348 -0.27161 -0.56885 0.53228 0.97843 -0.79443 -0.39711 -0.43811 -0.59315 -0.74075 -1.0125 0.37041 -0.25199 0.56855 -0.12808 -1.0387 0.41168 -0.10718 0.97033 -0.13849 -0.95407
cuadrado -0.2501 0.23471 0.016267 0.40755 -0.017012 -0.36705 0.25551 0.73626 -0.15056 0.47667 0.33361 -0.15549 0.4979 -0.22039 -0.23031 -0.41767 0.62719 -0.54702 0.52766 0.32456 -0.76314 -0.20915 -0.3188 0.021552 0.52856 1.315 0.86193 0.14729 0.21701 -0.25447 -1.0356 -1.2379 0.24533 -0.37553 -0.034981 0.31211 0.1234 0.034987 0.52069 0.47044 0.42272 -0.18213 0.12988 -0.73144 0.29077 -0.69097 0.49743 -0.2492 0.46212 0.021244
teaspoon -0.9969 0.92394 -0.40709 1.2081 1.5734 0.10633 0.97423 1.116 0.27937 -0.081393 -0.091767 -0.0019553 0.70272 -1.3033 -0.9721 -1.3096 -0.11416 0.14847 -0.8605 -0.55081 -1.0554 -0.40906 2.4403 0.30114 -2.0696 0.3283 1.0303 0.83122 2.5505 0.30334 1.2162 -0.38853 -0.60512 1.6359 -0.0049779 0.16889 -1.9293 0.48112 1.8302 -1.1178 2.8796 -1.2465 0.52042 -0.053382 1.3291 1.8824 0.12218 0.22097 -0.48388 -0.75208
mil 1.3995 1.4744 1.6798 -0.3408 -0.40493 0.49924 0.096014 -1.2313 -1.1382 -0.49971 0.21005 0.63599 0.18257 0.40816 -0.20815 -0.12004 0.20218 -0.10022 -0.59874 0.60912 -0.17611 -0.93273 -0.12131 -0.29393 -0.87131 0.34532 -1.1552 -0.3519 0.15172 -1.1283 -0.83417 0.74534 -0.78838 1.3054 0.7947 0.0050348 0.43448 -0.58857 0.59459 0.94463 0.41483 0.75962 1.3346 -1.5162 0.229 -1.7022 0.91321 -0.035085 -0.13442 0.65835
bnd 0.35431 -0.64504 0.78118 -0.50417 0.15127 -0.22853 -0.23633 -0.34324 -0.61352 -2.0283 1.1968 1.2604 0.28987 0.78614 0.042556 0.16965 -1.3598 0.024136 -0.31804 1.2351 -0.34507 -1.6176 0.47641 0.27105 -0.39419 -1.0113 -0.12039 -0.13265 -0.17671 0.071652 -0.91252 0.49219 0.46702 -0.24095 -0.83656 0.36243 -0.61236 -0.39673 0.030899 0.54503 1.0513 -0.20616 0.94642 0.76474 0.046749 -0.87166 0.49667 2.4692 0.163 0.33035
lbp 0.14338 -0.052072 0.056026 -0.14722 -0.60703 -0.064747 1.0671 -0.033879 -0.051173 -0.017396 0.37668 0.43298 0.8321 0.072718 -0.10905 0.20931 -0.25712 0.57217 0.60058 0.29015 -0.68438 -0.78924 0.17174 -0.089878 0.30861 1.0878 0.32645 -0.12813 -0.30687 0.23522 -0.56783 -0.12259 -0.10663 0.84337 -0.55394 0.087052 -0.069294 -0.93995 0.15466 0.074378 -0.13583 -0.69681 -0.088528 0.24426 -0.081346 -0.088285 0.40784 0.11838 -0.29038 -0.29816
tanzanian 0.14408 0.15679 -0.11461 0.64927 -0.14112 -0.86454 0.0030373 -0.15888 -0.0009954 -0.34326 0.10996 0.11754 0.52103 -0.80651 0.33244 -0.072372 0.28898 0.87297 0.81526 0.4327 0.49797 0.85196 0.42214 0.36302 0.17214 -0.33203 0.75902 -0.79287 -1.4614 0.88893 0.77045 0.41375 -1.1763 0.71496 1.2096 0.38212 -0.54375 -0.46546 -0.03417 0.64893 -0.97295 1.055 0.4163 -1.0787 0.085564 -0.24126 -0.81912 0.46769 1.2252 -1.4396
liter -0.30615 0.032174 1.4667 -0.43225 -0.13234 0.31613 0.69521 -1.3475 -0.11703 1.2706 0.54253 -0.67347 1.2559 -0.6694 0.98817 -0.23549 -0.41239 1.6184 -1.3422 -1.6609 0.24096 -0.62487 0.67243 -0.13547 -0.09812 0.37006 1.22 0.85252 -0.079957 1.4782 1.4925 0.23366 -0.2705 1.9685 0.88692 -0.3366 0.60747 -0.31724 1.1392 0.11213 0.80171 0.68994 0.15744 -0.051257 -0.15403 -0.083559 0.19649 0.21913 0.94634 -0.16097
garden 0.61144 1.6499 -1.0911 0.31216 0.36848 -0.92536 -0.99509 -0.83386 -0.33683 -0.44901 -1.0569 0.0096401 0.49783 -0.68038 0.32666 0.43658 0.42919 0.70426 -0.45069 -0.56005 0.65347 -0.26268 -0.3462 -0.2173 -0.068944 -0.24418 -0.2032 0.69803 0.43884 -0.58902 2.2087 -0.3578 -0.18479 -0.39156 -0.42966 0.64759 0.0075824 0.85386 0.27271 -0.22464 0.19748 -0.67152 -0.4236 0.40437 1.0006 0.57516 -0.26241 -1.7393 0.010477 -0.034584
zhang -0.53695 -0.069291 0.37395 1.4361 0.7187 -1.2269 1.2048 0.35205 -0.30785 -0.58351 0.54903 0.32133 -0.061981 -0.29847 0.78084 -0.69404 -0.29187 0.67414 0.5416 0.48703 0.1736 -0.43473 0.94546 -1.1271 1.6762 -1.1001 -0.1731 -0.79576 -1.3688 -0.29778 1.6729 0.22019 0.66305 -0.10848 -0.62281 0.9233 -0.060165 1.4897 -0.27212 0.14808 -0.73189 0.19181 0.27924 -1.2294 1.1799 -1.6884 -0.51193 -0.76775 1.3451 0.019806
rod -1.6623 1.0327 0.66613 0.74182 -0.66514 1.0156 0.086008 -0.1359 -0.18285 -0.26009 -0.36366 0.92559 -0.88732 0.85118 -0.1254 0.68992 0.71192 0.24746 -0.45249 -0.80651 -0.20863 -0.6346 0.31898 -0.46877 0.30365 -1.233 0.91579 0.67932 0.23551 -0.49129 0.96655 -0.51712 0.30574 -0.013227 -0.045375 0.37929 0.92909 0.04809 0.42148 0.49843 -0.017998 1.0585 -0.94851 0.21607 0.38256 0.24245 -0.20011 -0.68928 -0.38951 0.19023
spoon -1.2384 -0.12614 -0.66854 -0.2161 0.68096 0.69713 0.10048 0.7268 -0.23224 -0.25837 -0.062987 0.50042 1.1909 1.24 -0.13863 -0.17798 0.57567 -0.13369 0.0070473 -1.1906 0.85081 -0.90126 1.7213 0.51695 0.026044 -0.027302 0.47359 1.1923 0.8822 -0.79721 1.328 -0.0443 -0.46048 1.05 -0.71572 0.84699 -0.71845 1.0911 1.3847 -0.64213 0.88804 0.14958 -0.63262 0.026599 -0.11423 0.50965 0.78666 -0.56007 0.13003 -0.81409
fai -1.0358 -0.39693 -0.82311 0.86794 -0.49982 0.022426 0.77563 -0.56411 -0.32931 -0.87099 0.90643 0.93076 -0.50035 -0.1097 -0.28888 0.042302 0.44728 0.74897 -1.3207 0.39219 -0.089372 -1.2003 0.47719 0.074491 -0.23127 -0.51041 0.1293 -0.074744 -1.9032 -0.41618 -0.084177 1.2704 0.31089 1.1234 -0.20292 -0.35223 0.95854 -0.26065 -0.58337 -0.23318 0.056083 -0.3524 -0.71887 0.3397 -0.24983 -0.99586 -0.50635 -0.091061 1.673 -0.32099
facebook 0.50248 0.10375 1.6825 0.60564 0.080408 -0.096378 -1.3325 -1.0853 0.27789 0.61109 -0.23044 -0.25419 -0.41496 -0.66857 0.90437 0.070662 -0.99646 -0.23861 1.076 0.019238 0.54294 0.11509 -0.044859 1.0704 0.6394 -0.25886 0.30337 -0.67565 -0.53396 -0.59785 1.6814 -0.00598 -0.12614 -0.82862 -1.2254 -0.13355 -0.074345 -0.67755 -0.89556 -0.8341 1.0422 -0.70266 -1.4604 0.76414 0.52434 -0.87978 0.12579 -0.1819 0.1785 -0.10107
minute 0.29702 -0.45371 0.080791 -0.5374 0.96474 -0.77193 -0.4339 0.82998 0.46804 0.72868 -0.26724 -0.3093 -0.63944 0.50619 0.46308 -1.4101 0.30175 -1.8098 -1.6352 -0.53685 0.0013204 -0.11472 -0.058847 -0.19623 0.53208 -0.91628 1.2773 0.27195 -0.15189 -0.56802 2.6593 0.85145 -0.43518 0.65668 -0.15761 0.52973 0.6451 1.2352 0.14213 -0.3809 1.0825 1.0094 -0.65124 -0.58772 -0.80171 0.37578 1.1585 0.17056 0.4578 -0.47798
turkmenistani -0.77716 -0.41381 -0.60097 0.1896 0.37223 -0.17782 -0.11225 0.40462 0.083201 0.1037 0.39615 -0.10062 1.372 1.0415 -0.25791 -0.36075 -0.38578 1.0774 0.46059 -0.018338 -0.36688 -0.058331 -0.24231 0.77995 -0.51692 0.42456 0.50653 -0.12381 -0.1506 1.416 -1.2293 -0.30401 -0.49417 -0.98584 -0.0091637 0.85097 -1.0306 0.13674 -0.15044 -0.78505 0.0045891 0.14178 -1.0413 0.84025 -0.23466 -0.027764 0.015814 0.77803 0.30536 0.14827
salvador 0.42926 0.33205 -0.24563 0.62788 -0.23754 -1.1256 -0.37448 -0.051813 -0.73529 0.97991 0.74638 -0.54498 0.27448 0.015517 0.79582 -0.95309 -0.44885 -0.17993 0.20672 0.79959 -1.2925 0.22017 -0.031533 -0.42512 -0.6765 -0.38851 0.37793 -0.079113 -0.23415 -0.18233 1.1751 0.18787 -1.1631 -0.80949 -0.32205 0.31397 -0.62633 0.21353 0.74535 0.34944 -0.95134 0.76636 1.0449 -1.6517 -0.52495 0.90018 -0.69495 -0.77297 0.30085 -1.061
-- 0.49806 1.2382 0.86976 0.0025293 -0.56263 -0.38781 -0.47155 -0.95717 -0.12314 0.63262 -0.73375 -0.063457 -0.66477 0.68096 0.63595 0.81748 0.15183 -0.97582 0.23674 0.17767 -0.41731 0.12586 0.88072 -0.049402 -0.83049 -2.4283 -1.3054 0.165 -0.056037 -0.011953 3.0108 0.89362 -0.49819 0.56545 0.95535 -0.68507 -0.1452 0.14026 0.22841 0.1977 -0.92491 1.5205 0.81055 0.059992 0.83629 0.17134 -0.5262 -0.1575 0.17409 0.1079
omani -0.51149 0.0027609 -0.38971 0.6298 0.79391 -1.5671 -0.077459 0.23015 -0.44729 -0.043293 0.71977 0.20629 1.0804 0.45604 0.10058 0.27497 0.2087 0.9534 -0.068414 1.5794 0.56348 0.0093431 0.8387 -0.12732 -0.38392 -0.53642 0.51119 0.26371 -0.16474 0.71258 0.24995 0.51234 -0.18863 1.0365 0.47531 0.93421 -0.97907 0.012609 -0.88592 0.71668 0.093886 0.26431 0.24539 -0.027849 -0.1873 -1.063 -0.9862 1.7567 0.45958 -1.2267
brother 0.38241 0.56538 0.17174 -0.32832 1.1811 0.64141 -0.75489 0.76061 -0.84549 0.067996 0.40488 1.3168 -1.039 -0.36122 0.74153 -0.20821 -0.46036 0.030236 -0.2302 0.59638 -0.48645 0.69894 0.16648 0.21533 0.2518 -2.0648 -0.20365 -1.1691 -0.1263 0.1645 1.5242 -0.32779 -0.42933 -0.11819 0.77706 0.26428 -0.0004162 0.41256 0.34926 0.24193 -0.09411 1.1235 -0.8575 -0.47789 0.45681 -0.23303 -0.93793 -1.7232 0.091327 0.19521
svc -0.56951 -0.90393 -0.10134 0.56234 -0.30315 -0.77155 1.0312 -0.090716 0.48144 -0.79667 -0.51934 0.029745 1.0563 0.13381 -0.30156 -0.095147 -0.70219 0.86023 0.29874 0.38815 0.50953 -0.77202 0.41748 1.1164 -0.33299 0.64815 -0.1423 -0.5802 -0.10329 0.7978 -0.22389 0.0068924 0.17425 0.7126 -0.83418 0.44621 0.023179 -0.71493 0.77347 -0.63362 0.93524 -0.56691 -0.5356 0.9462 0.3095 0.88271 0.23822 0.16795 0.70661 1.0079
hogshead -0.097233 -0.10996 -0.90826 -0.03009 -0.81646 0.91982 -0.17049 -0.87577 0.42469 0.05652 0.0025811 -0.39911 -0.33548 -0.14236 0.59834 -0.53065 -0.030878 0.48819 0.35435 -0.67178 0.057415 0.28387 0.39476 0.26102 -0.58113 0.88669 0.22988 1.0373 -0.51838 0.51738 -1.1132 -0.44862 -0.28019 0.95716 -0.92508 -0.049575 -0.1104 0.30364 0.53454 0.060063 1.5556 -0.16605 -0.5982 0.30068 0.24503 -0.55968 0.27658 0.098563 -0.57187 -0.071774
try 0.38204 -0.50218 0.2995 -0.46116 0.20973 -0.26879 -0.317 0.6004 -0.22653 0.32777 -0.41231 0.65231 -0.6068 0.39835 0.22622 0.73449 1.3694 -1.057 0.041183 -0.88573 0.25723 0.38203 0.13009 0.36953 0.033313 -1.7332 0.10601 -0.80652 0.68499 -0.92128 2.949 1.1876 -1.687 -0.1293 0.2607 0.33787 -0.30889 0.0165 0.14772 -0.69315 -0.1241 0.36137 0.47371 -0.02768 0.67094 0.52057 0.52428 -0.072414 0.24452 -0.027145
boliviano -0.40276 0.22973 -1.0232 -0.30297 -0.33818 -1.4329 0.089341 1.2577 -0.22425 0.12174 1.0677 1.4257 1.0162 0.44187 0.64777 -0.14076 0.25765 0.92673 -0.33861 -0.71094 -0.43293 -1.3322 -0.40041 0.14307 -1.6919 1.5483 -0.12387 0.82916 0.34092 1.7407 -0.93719 -0.36183 0.84316 0.99759 1.4485 0.70827 0.86851 -0.42965 0.9932 -0.65231 0.03423 0.20686 0.062008 -0.63005 -0.83787 0.38992 -0.57432 0.42712 0.45432 1.137
ugx 0.73634 0.19613 1.3491 0.047797 -0.53253 -0.45337 1.7028 -0.41008 -0.80865 0.41488 -0.43039 0.31 0.62029 -0.89949 0.59866 -0.14893 -0.33172 0.72113 -0.25196 0.73587 0.12161 -0.4232 0.67183 -0.37716 0.44231 1.8054 0.37397 -0.20767 0.10381 0.44207 -1.221 0.13695 0.50486 1.1766 -0.83534 -0.88986 -0.022752 -0.79918 0.17315 -0.021918 0.8135 -0.85023 0.82797 0.51579 -1.347 -0.082422 0.20781 0.52888 -0.47088 0.42165
saudi 0.72713 0.54511 0.032189 0.12299 1.1411 -0.68146 -0.10693 0.40463 0.65728 0.55014 0.3043 -0.14565 -0.022644 0.51728 0.036781 0.59304 -0.23749 -0.3533 -0.20998 1.6691 0.55258 0.17433 0.64268 0.084443 -0.94145 -2.4819 0.28469 -0.16547 -0.11177 0.66922 1.9803 0.56308 -0.1427 0.88268 0.61093 -0.22589 -0.56841 0.27553 -1.2553 0.71762 0.14956 0.47129 0.70087 -0.23508 0.86219 0.35805 -1.5676 1.3153 -0.4943 -0.96079
ml -0.040613 0.13894 1.2417 -0.4551 -0.38703 -0.085106 1.5067 -1.2441 -0.74591 -0.17517 0.31753 -0.77556 -0.44807 -0.67213 0.12834 0.33176 -0.15373 1.0718 0.08859 -0.13255 -0.43795 -0.10884 1.0173 0.57897 -0.69334 0.58471 -0.46447 -0.095727 -0.45324 0.64035 1.0597 0.0040246 -1.2758 2.1508 0.26792 -0.16677 0.71624 -1.0086 1.6008 0.92895 1.16 -0.27887 0.052061 0.32805 0.44849 -0.067505 0.52334 0.68176 0.15659 -0.6209
naira -0.7005 -0.31863 1.8463 -0.20386 0.75577 -1.066 0.73772 -0.39839 -0.78803 1.3368 0.15429 0.48739 0.49317 -0.84794 0.57596 -0.044795 0.42388 0.69274 -1.0057 -0.11273 1.1175 0.27447 1.3135 -0.89874 -0.47676 0.69879 1.8009 -0.70391 -0.55754 1.7267 1.2833 0.17173 0.3911 1.9117 0.38441 -0.44682 -0.34445 -0.61761 0.40828 -0.43734 0.7037 0.51016 0.27611 0.22273 -0.82113 0.043322 -1.1628 0.48449 0.10311 -0.81277
croatian -0.61054 -0.45368 -0.15528 -0.057384 -0.40175 -0.39342 -0.15467 0.92558 -1.351 -0.81426 1.0145 -1.6177 -0.22355 -0.57162 0.45713 -0.39821 0.074718 -0.076901 0.59958 0.56423 -1.0942 0.045984 -0.82717 0.82966 -0.8692 -0.97403 -0.70592 -0.18332 -0.012773 0.36233 1.8106 -0.26475 -0.98171 0.34716 0.043847 1.0694 -0.40288 0.14514 -0.69044 0.22687 0.92144 0.89895 0.51921 -1.553 -0.33291 -0.64874 -0.2368 1.2571 -0.57985 -1.391
bwp -0.37306 -1.1226 0.078249 -0.64457 -0.029288 -0.43462 1.3128 -0.38281 -0.083219 -0.17121 -0.30475 0.55807 0.39278 0.67674 -0.33717 0.22879 0.38503 0.39964 -0.32659 0.47898 -0.38994 -0.75443 -0.073803 0.0078125 -0.21566 0.40143 -0.43307 0.015342 0.060425 -0.41232 -1.3063 -0.011812 0.51012 0.81132 -0.52603 0.094572 0.38435 -1.1676 0.22255 -0.058715 0.10348 -0.018334 0.30009 0.2491 0.15332 0.68169 0.26554 0.36896 -0.34928 0.85111
smaller 1.1998 -0.23055 0.69906 -0.1176 0.36606 0.57779 -0.62184 -0.6137 -0.41405 -0.24856 0.14361 -0.56083 0.68587 0.43607 -0.55022 0.40384 0.26088 0.26201 -0.45767 -1.3575 0.16209 -1.1499 -0.012015 0.36464 -0.71587 -0.41222 -0.39604 0.10225 0.13425 -0.14918 3.4935 0.38427 0.69106 -0.096564 0.27325 -0.20039 -0.54823 0.14732 -0.46445 -0.022909 -0.2768 -0.039195 0.34513 0.50713 -0.072703 -0.097248 -0.2894 -0.24848 -0.3833 -0.23238
rats 0.96093 -1.0569 -0.044289 -1.0183 -0.32683 0.50519 -0.20098 -0.95764 0.92809 -0.097574 0.79903 0.069326 1.1224 0.13062 0.19769 0.85471 0.53571 0.78784 -1.389 0.02978 -0.40201 -0.24708 1.5725 0.25637 0.037428 -0.53599 -0.68131 0.21961 -0.17296 -0.72813 0.95016 0.6554 -0.053617 -0.78616 -0.14876 0.5769 0.20112 0.17069 0.97192 -0.073193 -0.8819 0.030898 -0.35765 1.132 1.2873 -0.34544 0.48409 -1.0393 0.10549 -0.071365
tea -0.44905 -0.0024527 -1.0444 0.42638 0.52453 -0.29592 -0.58751 -0.55973 0.5258 0.51151 -0.75296 -0.070205 1.108 -0.61597 -0.10542 -0.081827 -0.098814 0.4772 -0.05607 -1.2916 0.87419 0.16908 1.1681 0.045039 0.16472 -0.45808 0.092399 0.34212 -0.026885 0.52544 2.081 0.17965 -0.36365 1.2776 0.46112 -0.040696 -0.73721 0.96682 0.23409 -0.15367 0.22027 0.29598 -0.68767 0.25587 1.2896 1.2949 -1.0256 -0.86289 0.88089 -0.90278
paso -0.25112 -0.0011499 -0.14474 0.63026 -1.066 -1.3656 -0.43223 -0.01192 0.031564 1.0007 0.0071859 -0.51354 -0.14762 -0.75855 -0.40392 -0.71587 -0.24791 1.0656 0.18803 0.37649 -0.54877 0.20457 0.41718 -0.14854 -1.1573 -1.017 -0.17507 0.65199 -0.023728 -0.96273 0.97587 -0.56544 -0.5535 0.32448 0.65886 -1.0302 -0.52408 0.1067 1.0095 1.223 -0.69256 0.26486 0.49297 -0.084389 -0.86682 -0.68366 -0.7697 -0.1801 0.08815 0.36201
japanese -0.30919 -0.35173 0.077699 0.28382 0.58852 -0.057347 -0.59888 0.069184 -1.4809 -0.27295 0.96721 0.24209 0.7149 1.2033 0.41348 -0.019271 -0.94934 0.71965 -0.53969 0.20194 1.2115 -0.39822 -0.87987 -0.42378 0.6151 -1.865 -0.40182 -0.46066 -0.31456 -0.10373 2.9272 0.016333 0.82838 0.55921 0.10666 -0.10548 -0.22221 -0.54478 -1.2444 -0.63589 -0.75659 -0.66823 1.2943 -0.87361 1.7536 -0.45602 -0.24003 0.95075 0.29086 -0.37979
cfa 0.18073 -0.023713 -0.67713 0.082673 -1.0849 -1.5303 0.70994 -1.0823 -0.1475 -1.094 0.67621 0.86776 1.3868 -0.77393 0.63353 -0.4093 -0.15178 1.0765 -1.0923 -0.20198 -1.1597 -0.29171 1.0316 -0.81879 -0.13317 0.57298 0.60403 0.66131 -1.658 0.85242 1.4969 -0.20147 -0.26168 0.97644 -0.64823 -0.11006 -0.024192 -0.33616 0.12527 -1.069 0.50805 -0.20754 1.3757 0.50031 -0.83193 -0.49221 0.23916 1.1692 0.15352 -0.25692
nail -0.30425 -0.29012 0.16253 -0.13717 0.23589 0.71993 0.11345 0.1289 -0.082703 -0.1454 -0.38459 -0.78233 -0.94347 1.0187 -0.35834 0.37613 0.062909 -0.31672 0.18058 -0.78455 0.096841 -0.029955 0.27797 -0.26319 -0.96486 -0.6914 -1.1634 0.80962 0.90975 -1.2565 0.99961 -0.14178 -0.81063 0.68143 -0.19369 0.71739 0.37668 0.70604 0.91802 -0.49512 0.37774 -0.535 -0.14297 0.14023 1.5152 -0.087005 0.6079 -0.11892 0.27753 -0.46927
second -0.29809 0.28069 0.087102 0.54455 0.70003 0.44778 -0.72565 0.62309 0.00068863 -0.021056 0.25279 -0.55761 -1.0997 0.039402 0.52667 -0.63019 -0.18665 -0.79278 -1.5962 0.25619 -0.19394 -0.43099 -0.17204 -0.1613 0.15095 -1.6053 0.15869 -0.44338 -0.13576 -0.04376 3.4702 0.1412 -0.11392 0.54512 0.45893 -0.18561 0.56094 0.87956 0.00051749 -0.57134 -0.11777 -0.13594 -0.38943 -0.79267 -0.57329 0.38209 0.45584 -0.48396 0.34966 -0.29908
picked -0.20946 -0.40972 0.62346 0.073657 0.7619 -0.18778 -1.5682 0.3452 -0.1992 -0.24874 0.041961 -0.099418 -0.24076 0.45551 0.41567 -0.29722 -0.080473 -0.32369 -0.86635 -0.71836 -0.21199 0.28985 0.71728 -0.17367 0.31167 -1.2208 0.3255 0.27013 -0.22934 -0.59079 2.0618 0.38959 0.11178 -0.12907 0.36274 0.18258 -0.034305 0.58512 -0.013268 -0.50994 -0.16823 0.51316 -0.29466 -0.16949 0.22376 -0.04399 -0.24664 -0.11951 0.19725 -0.26743
ves 0.41501 0.023469 -0.56179 0.47451 0.10813 -0.018318 1.6836 0.15727 -0.14188 0.71029 0.2344 -0.48 1.2223 0.4578 -1.0286 0.36557 0.81981 0.96529 -0.1363 1.3489 0.55289 -0.39306 0.35264 1.3306 0.08564 0.48338 -1.8164 0.22768 -0.83191 -0.98441 -0.54913 1.0031 0.099891 0.53437 0.31288 -0.29694 0.56204 -0.23328 0.86465 0.13885 -0.35843 -0.0025812 -0.28424 -0.76085 -1.3586 -0.10391 -0.01225 -0.51128 1.8828 0.14857
ribbon -0.85366 0.95397 -0.83025 0.21772 0.10893 0.51796 0.42685 -1.0611 1.164 -1.2907 -0.20164 -0.13389 0.55091 0.63384 -0.70174 -0.40654 -0.72265 0.38995 -0.073918 -1.221 0.39108 -1.0319 0.35644 -1.0173 -0.80936 -0.71912 -0.35658 1.2156 -0.67032 -1.4651 1.2984 0.63067 -0.67347 0.18834 -0.64547 0.43276 0.24842 0.34723 -0.57112 -0.52354 -0.046423 -0.33385 -0.49096 -0.35243 0.15474 -0.75844 0.79416 -0.67128 -0.41742 -0.50762
sll -0.91861 -0.53788 0.21748 0.26994 -0.71655 0.16574 0.64218 -0.30956 -0.059572 -0.71626 0.35813 0.37332 -0.48347 -0.094296 -0.33558 -0.088701 0.2887 0.3374 0.096481 -0.14992 -0.16747 -0.24824 -0.24192 0.47212 -0.25877 1.3227 -0.17493 -0.80581 -0.23638 0.5505 -0.66424 0.61456 0.25398 0.60318 -0.52754 0.44888 0.39059 -1.0462 -0.19684 -0.037856 0.71852 -0.71363 -0.3322 0.68986 -0.40194 0.065516 0.18781 0.37748 -0.020153 -0.10315
sheng -0.48319 0.875 0.088933 0.1313 -0.31566 -0.92544 1.0877 -0.25258 -1.2259 0.27519 0.47772 1.1515 0.56292 0.57585 -0.62974 -0.38906 -0.84863 0.12426 0.488 0.90759 -0.089117 -0.93873 0.31064 -1.5558 0.35864 -1.1083 0.15743 0.03547 -1.5809 -0.74868 0.7019 0.12056 0.19997 0.38452 -0.59434 -0.026756 0.4687 0.37507 0.69315 0.94876 -0.56663 1.0039 -0.2898 -0.60269 0.67079 -1.7531 -0.38348 -0.24736 1.2539 0.084569
tnd 0.14026 -0.73622 -0.52893 -0.099858 -0.21259 -0.53061 0.45737 -0.47532 -0.1707 0.62146 0.031576 0.057966 0.96317 0.52451 -0.44618 0.2329 -0.053758 0.74511 0.63666 0.69305 -0.32123 -0.090217 -0.36969 0.63166 0.47468 1.4505 0.45613 -0.19808 0.19344 -0.31489 -0.75022 0.23142 -0.46056 0.57576 -0.23491 0.31097 0.13291 -0.28204 -0.10728 0.40119 -0.3775 -0.8406 -0.13315 0.33669 -0.11903 0.42677 0.26643 -0.23855 0.52084 0.25874
ringgit -0.22278 -0.65637 0.85995 1.4367 0.66205 -1.0339 1.2135 -1.112 -0.29548 0.3514 0.12391 0.55992 0.039014 -1.5657 0.95188 0.65952 -0.73176 1.0566 -0.15933 -0.1038 1.4101 0.46264 0.16346 -1.6131 0.012842 0.47359 2.0136 -0.53483 -0.43109 1.563 2.3237 0.2177 1.2753 2.6995 0.1263 -0.72589 -0.30793 -0.42047 -0.020346 -0.84921 -0.46057 0.020812 0.38327 1.2372 -0.44783 -0.62818 -0.59378 -0.16284 0.30066 -0.87741
birr -0.17877 -0.25239 0.67687 0.68953 0.39711 0.020494 0.75905 0.17936 -1.06 -0.64005 -0.84389 -0.22811 0.50344 -2.2967 0.53038 0.12335 0.55048 0.83425 -0.44636 1.1313 0.13979 -0.77859 0.049024 -0.76165 0.76994 0.34905 1.0323 -0.57676 -0.85677 -0.41137 0.19028 0.099341 0.95154 1.4099 0.17561 0.26236 -0.29257 -0.061726 -0.46254 -0.65415 0.61584 -0.13827 -0.12989 -0.09465 -0.65311 0.12499 -0.14581 1.2808 -0.23724 -0.78037
kgs -1.2851 -0.44172 0.71531 -0.93688 0.68773 0.05944 2.1112 -0.75839 1.7745 1.4342 0.15137 -1.083 -0.13811 -0.53228 0.74593 -0.55012 0.62414 0.35893 -1.2882 0.36553 0.057284 0.36115 -0.24194 -0.98552 0.073098 -0.15086 0.8175 -0.50683 -0.19036 -0.35805 0.080122 0.11512 0.22588 2.0619 0.17115 0.49248 1.5971 0.31629 0.16411 -0.38647 0.62763 -0.098314 1.4069 0.086268 0.17341 0.25353 0.68896 -0.41931 -0.13182 -1.2595
bdt 0.59752 -0.0021487 0.3073 0.044873 0.078111 -0.21722 1.7014 -0.26004 -0.17966 0.49543 0.16936 -0.42081 0.6391 0.14824 -0.0075592 -0.14648 0.017129 1.0233 -0.19313 0.25359 0.87731 0.19541 -0.32808 -0.17202 -0.081866 1.093 -0.22054 -0.42865 -0.82123 0.088049 -0.84717 0.60201 -0.21915 0.68559 -0.41268 -0.18952 -0.34784 -0.19556 0.55077 -0.25291 0.66864 -0.3549 0.66112 -0.067407 -1.3908 0.20183 0.54175 0.41269 -0.17775 -0.36726
indian -0.50272 -0.86278 -0.62779 0.91383 0.31368 -0.038815 -0.31021 -0.2526 0.30158 -0.64804 0.045761 -0.037186 0.70252 0.11521 -0.3486 0.08222 0.24425 0.90143 -0.72602 0.34732 0.79549 0.68965 -0.011682 0.25732 0.87478 -1.7585 -0.43138 -1.1128 -1.1055 0.25266 3.0408 -0.42061 -0.1143 0.74834 0.61912 0.36031 -0.71076 -0.8182 -0.66709 0.43353 -0.90637 0.86167 0.0090063 -0.089209 0.15429 0.45053 -0.46443 0.27031 0.10094 -1.3809
bceao -1.0786 -0.78886 -0.059315 0.16585 0.21861 -0.5481 0.73037 0.17325 0.24157 -1.1322 0.065598 0.48972 1.4119 -0.50745 -1.5374 0.50372 0.77444 -0.61072 -0.040465 0.83069 -0.30978 -1.3488 -0.68495 0.55626 0.40287 -0.5307 0.73957 -0.78896 -1.4913 -0.97069 -0.75288 -1.134 0.52246 0.82229 -0.41295 -0.82328 -0.84273 -1.0647 -0.62632 -0.30365 0.74105 0.13371 0.89943 -0.5688 -0.030284 0.61423 0.31744 -0.65857 -0.17918 -0.57923
new 0.19511 0.50739 0.0014709 0.041914 -0.16759 0.037517 -1.397 -0.92398 -0.24296 -0.15171 -0.47829 0.054612 -0.24986 0.38398 0.016182 0.34938 -0.22627 0.086618 -0.41001 -0.18139 0.75607 -0.0262 -0.69557 0.10874 -0.47539 -1.8095 -0.1694 -0.059863 -0.16806 -0.094546 3.661 0.041462 -0.29161 -0.69772 0.30805 -0.28457 0.13217 -0.007643 -0.09239 -0.49237 -0.27055 0.060425 0.095107 -0.23679 -0.086108 1.0243 -0.22779 0.030488 -0.14272 0.45411
aruban 0.052181 -1.5523 -0.42673 -0.066972 -0.1285 -0.52203 0.1513 1.0402 -0.25956 -0.20061 1.0487 -0.48793 0.88852 -0.22731 0.53095 -0.19178 0.46473 0.28627 0.01958 0.23833 -0.39716 0.10159 -0.49296 0.40448 -0.64555 -0.52478 -0.4434 0.13073 -1.3547 -0.49099 -1.0463 -0.14261 -0.019049 -0.29362 0.49451 0.99662 0.2043 -0.4903 0.5631 0.031016 0.35208 0.7921 0.65269 0.0046829 -0.14836 -0.86859 -0.28104 1.6594 0.68223 -1.0556
filled 0.49425 0.54451 0.065214 -0.47016 0.42375 -0.061811 -0.79898 -0.047303 -0.049066 -0.089352 -0.84377 -0.55778 0.32777 0.66474 0.53714 -0.26761 -0.1744 0.44088 -0.35455 -1.2822 0.416 0.23167 0.38735 -0.039579 -0.19762 -0.76579 -0.46242 1.444 0.74466 -0.12504 2.3926 0.023479 0.071234 -0.38575 -0.16731 1.1936 0.0066818 0.33702 0.5303 0.12427 0.17435 0.43049 -0.49381 0.65091 0.18506 0.50849 -0.4132 -0.57234 -0.082142 -1.0588
brunei 0.64279 0.10649 -1.3639 1.6692 0.93578 -1.0025 0.66139 -0.11214 0.47486 -0.32061 0.74939 0.32581 1.0868 0.22629 0.35303 0.91088 -0.065757 0.42275 0.14911 1.5966 0.56408 -0.19449 1.0401 0.0023401 -0.5689 -0.088761 0.74648 -0.40699 -1.2328 0.15081 1.4258 0.92191 0.024834 1.1764 0.33546 0.052457 -0.71465 -0.12036 -1.137 -0.10902 -1.1316 -0.18802 0.58294 -0.54712 -0.14945 0.67211 -0.95143 0.014254 -0.40134 -1.1268
ggp 0.39205 -0.29825 0.12658 0.21224 0.15699 0.14121 0.82891 -0.13271 0.34666 0.31658 0.60006 0.19551 -0.06261 -0.49032 0.33409 0.54669 -0.7213 -0.17451 0.48743 0.29498 -0.32675 -0.62095 -0.39486 -0.089825 -0.4722 1.3871 0.099729 -0.57668 0.1567 0.52626 -0.89472 0.16804 0.48863 -0.20635 -0.48537 0.2343 0.27951 -0.35383 -0.011983 -0.15567 0.30614 -0.56077 -0.43593 0.13589 -0.0053174 0.36413 -0.028632 -0.30312 -0.28047 0.37199
forint -0.39176 -0.86237 0.091185 -0.67452 -0.18777 -0.61367 1.6129 -0.10907 -1.7074 0.33717 0.50334 0.14275 0.98728 -0.11366 0.83807 0.46326 -0.11872 -0.093701 -0.91562 0.97014 1.0311 -1.2155 -0.65247 -0.61257 0.59556 0.055227 0.42704 -0.36582 -0.88434 0.63883 0.98405 0.69345 1.7821 2.564 -0.97872 -0.38802 0.20093 -0.47314 -0.15245 -0.61142 0.2658 0.54844 1.007 -0.16339 -0.80892 0.16985 0.16775 0.62386 0.031155 -0.97238
amphora 0.20782 0.17887 -0.74409 -0.10821 0.89755 0.63455 0.47546 -0.4748 -0.43014 0.21092 0.95461 -0.2739 0.93262 0.99314 0.16758 0.053434 -0.56528 0.57406 -0.5949 0.54433 -0.61917 -0.92484 -0.043338 0.34399 0.17671 0.26235 -0.70367 1.1288 -0.42438 -0.1286 -0.75399 -0.46822 1.2478 0.58346 -0.37843 0.92937 0.1389 0.79574 0.68474 0.95808 0.92837 0.37775 -0.41826 0.75759 0.39201 -0.029449 0.53271 0.98535 0.050624 -0.87554
lek 0.38357 -0.42413 0.25472 0.65885 -0.13986 -0.45427 0.23946 -1.4898 -0.097832 0.76499 0.42098 0.033413 0.74458 -0.45754 -0.4495 0.41991 1.1126 0.45893 0.492 0.46427 -0.54422 0.40253 1.0782 -0.63504 0.31657 0.8096 0.32479 0.34872 -1.0842 0.14284 -0.36929 0.025296 -1.2402 0.7963 0.019561 -0.41683 0.17598 0.090283 1.0726 0.64514 -0.46751 0.23519 -0.60697 0.12064 0.20974 -1.2042 -0.29096 0.093317 1.8178 -0.43221
water 0.53507 0.5761 -0.054351 -0.208 -0.7882 -0.17592 -0.21255 -0.14388 1.0344 -0.079253 0.27696 0.37951 1.2139 -0.34032 -0.18118 0.72968 0.89373 0.82912 -0.88932 -1.4071 0.55571 -0.017453 1.2524 -0.57916 0.43 -0.77935 0.4977 1.2746 1.0448 0.36433 3.7921 0.083653 -0.45044 -0.063996 -0.19866 0.75252 -0.27811 0.42783 1.4755 0.37735 0.079519 0.024462 0.5013 0.33565 0.051406 0.39879 -0.35603 -0.78654 0.61563 -0.95478
let 0.067025 -0.010427 0.61778 -0.29952 0.68244 -0.53138 -0.0049878 0.67877 -0.3801 0.1606 -0.054663 0.85439 -0.48949 0.091105 0.79834 0.83093 0.79013 -0.31992 0.27924 -1.1659 -0.0048596 0.20945 0.5982 0.59395 0.50349 -1.8205 -0.31137 -0.073957 1.0215 -1.0536 2.9803 0.83399 -1.1412 0.15333 -0.49095 -0.28432 0.21243 -0.37621 0.46302 -0.32079 0.18216 0.20559 -0.051854 0.38381 0.062563 0.20926 0.21338 -0.42741 -0.19243 0.42443
leu 0.63822 0.35392 1.0368 -1.0916 0.13641 -0.60366 0.78993 -0.15111 -0.31608 1.4728 1.274 0.78998 0.67009 -0.28417 -0.49664 0.90191 0.57779 0.55795 -0.010679 0.6921 0.53327 -0.97967 0.34435 -0.6957 0.14996 -0.72982 1.2213 0.55026 -1.1262 -0.069128 -0.65351 0.24355 0.098617 1.2352 0.37088 -0.61782 -0.32975 1.311 0.31124 -0.24942 1.2228 -0.12206 0.89111 -1.0091 0.49591 -0.58418 0.24326 0.79534 0.47093 -0.9272
lev -1.0299 0.92701 0.69811 -1.1487 -0.93059 0.39174 0.64577 -1.4594 -1.8081 0.41172 0.52419 0.45837 -0.75682 1.1195 0.34172 0.058514 -0.014941 -0.0052791 -0.046915 1.1713 -0.21076 -0.68596 -0.43468 -0.30641 -0.74513 -1.4073 -0.58277 0.31089 -0.92348 -0.54005 -1.0277 0.20921 0.21217 0.26073 -0.20166 -0.76657 0.20686 -0.34916 0.73417 1.2503 -0.45564 1.5061 1.1085 -0.48175 -0.48673 -1.5772 0.4388 0.37517 -0.013419 0.47248
sardines 0.87313 -0.69658 -0.82984 -0.46475 0.073113 -0.32464 -0.45176 -0.23712 0.17902 0.58869 0.074729 1.2551 1.7083 0.76409 0.8226 -0.13984 0.65806 0.60313 -0.50233 -0.64667 -0.045141 -0.37754 1.5155 0.5756 -0.079099 0.5039 0.64909 1.1319 0.58873 -0.7045 -0.14409 0.45355 0.42071 1.2415 0.41268 0.69978 -0.21525 -0.24253 0.74227 0.64843 -0.027764 0.64991 0.82284 0.3069 0.76264 0.89679 -0.57833 0.23695 -0.021049 -0.38294
alone 0.5357 -0.10067 0.53897 -0.36807 0.67909 0.31371 -0.26976 -0.16813 0.12638 0.23458 0.1364 -0.45599 -0.030773 -0.51339 1.0718 0.4463 0.037857 0.3219 -0.22648 -0.12073 0.14079 0.54096 0.29617 0.06971 0.50718 -1.2427 -0.21958 0.040117 0.40179 -0.38644 2.7514 0.61158 -0.03015 -0.027541 -0.02719 -0.23114 0.018789 0.148 0.28147 -0.16007 -0.53388 0.10427 0.51568 -0.025971 -0.60817 -0.077016 -0.16988 -0.41623 -0.22232 0.16686
iraq 0.8643 -0.18699 0.99589 -0.65489 0.64392 -0.44191 0.36037 0.31072 0.70071 -0.90208 -0.66442 -0.77709 -0.88973 -0.081438 0.2968 0.74191 0.39566 -0.59606 0.3467 0.76214 0.053087 0.43839 0.77542 -0.48396 -0.3259 -2.3488 -0.40539 0.059394 1.0076 1.112 2.9111 0.14878 -0.92753 -0.42307 -0.07785 0.16759 -0.41354 -0.23573 -1.4501 0.21852 -0.30933 0.27827 0.71862 -1.1314 0.2044 0.57201 -0.86646 1.4808 -1.157 -0.1834
hoppus -0.87654 -0.18992 -0.080583 -1.243 0.21546 -0.19742 -0.6449 -0.59416 0.58785 -0.66444 0.44222 0.50939 -0.37408 -0.19783 0.37015 0.25197 0.044043 -0.82398 0.16145 -0.60256 -0.2729 0.57315 -0.46155 -0.48174 0.74673 1.3987 0.029984 0.010397 -0.35236 0.63165 -0.92718 -0.17183 0.89008 0.57511 -0.16543 -0.46759 1.2059 -1.4921 -0.59739 0.54601 -0.2086 -0.15044 -1.004 0.33225 -0.13784 -1.0015 0.73263 -0.60986 -1.5993 0.27088
hkd -0.26507 -0.08112 0.7029 0.38893 0.17848 -0.48414 1.4559 -0.45398 0.97283 0.3364 -0.1663 0.047097 1.2697 -1.198 0.50776 0.041182 -0.21263 0.28142 -0.0101 0.7267 1.3725 -0.052439 -0.13884 -0.53971 -0.44041 0.75066 1.0787 -0.2681 -0.033672 -0.8454 -0.58819 0.96714 0.57319 0.78842 -0.36141 0.48849 0.27434 -0.91384 0.27517 -1.4241 0.36585 -0.63848 1.3167 -0.18773 -0.054709 -0.43649 0.14092 -0.62015 1.1423 -0.51059
aud -0.21813 0.088563 0.63319 -0.066163 0.49467 -1.0242 0.059207 -1.3545 -0.30023 -0.9782 -0.38039 0.15475 1.0792 0.47683 1.4455 0.88333 -0.018357 0.49996 0.082063 0.82889 0.39105 -0.17857 -0.23091 0.58276 0.479 0.95139 -0.14197 -0.52281 -0.1558 0.21546 -0.87815 0.2172 -0.34156 1.0049 -0.088244 0.29699 0.012765 -0.99955 0.50602 -0.90075 -0.17207 -0.20737 1.2564 -0.22351 0.125 0.53037 0.78846 0.20668 0.97444 0.37031
box -0.12971 0.24637 0.76567 0.22735 0.53018 -0.49294 -0.92204 -0.35652 0.67984 0.27848 -0.75699 0.29437 -0.078395 0.82736 0.42022 -0.29609 -0.34251 -0.40083 -0.71253 -0.75618 0.36122 -0.57496 0.19676 0.1057 -0.30528 -1.0339 -0.82177 0.82443 0.60749 -0.99471 2.2733 -0.26072 0.34789 0.40448 -0.20346 0.65681 0.76626 0.27854 0.3895 -0.7207 0.91609 0.37224 -0.51919 0.33688 -0.68685 1.0463 0.019233 -0.51139 0.25233 -0.30161
cve 0.62416 -0.69672 0.74108 -0.16957 0.39063 -0.51857 0.040825 -0.55405 0.28393 -0.1987 -0.025433 0.68918 0.29415 0.036594 -0.55837 -0.34426 -0.3421 -0.21176 -0.2522 0.43883 -0.87399 -0.66379 0.23586 0.66998 0.32985 0.8468 -0.15054 -0.59008 0.01378 -0.16384 -0.968 0.14391 -0.10843 0.055343 0.072992 -0.46098 -0.6505 -0.76089 -0.94692 -0.46281 0.74094 -0.59173 0.26032 0.26218 -0.86849 -0.11558 0.86487 0.74667 0.3969 0.52295
canadian -1.3156 0.32637 -0.26136 0.2245 0.1606 0.54859 -1.4823 0.11134 0.56203 -0.73024 1.0907 0.14896 0.5381 0.70565 0.059538 -0.26862 0.39618 -0.047937 -1.1397 -0.3358 0.847 0.2914 -0.39779 0.31489 -0.58002 -1.3253 -0.47449 -0.8454 -0.60191 0.64494 2.0943 -0.34479 0.0082923 -0.15634 0.20007 -0.44347 -0.17446 -0.47847 -0.096943 -0.41283 0.29901 0.25059 1.1155 -0.95187 -0.09604 0.018788 -0.92339 0.2649 -0.021092 0.02992
receive 0.38564 0.89574 0.57274 -0.37227 0.4299 0.052068 -0.26815 0.61382 0.68229 0.41756 0.30755 0.18049 1.556 -0.58097 0.74192 -0.10099 -0.5224 -0.061529 0.12406 -0.60208 0.56399 -0.058985 0.25173 -0.35227 -0.41578 -1.1779 0.048267 -0.92063 -0.50183 -0.39194 3.1039 1.1564 -0.56425 -0.2345 0.52053 0.095412 0.7566 0.051648 0.014377 -0.8451 0.52162 0.17071 0.34844 0.54354 -0.63099 -0.65424 -0.48459 1.0387 -0.4691 0.37766
turkish -0.010812 -0.49674 -0.33204 -0.013681 0.42583 0.032431 -0.055731 0.38939 -0.88767 -0.62568 0.91347 -0.63748 0.48829 0.70541 0.17792 0.093181 0.24326 0.62529 -0.47188 1.0263 0.48049 0.36593 -0.25344 0.43876 0.35301 -1.9241 0.11191 -0.22306 -0.46633 0.6209 2.416 0.30193 -0.86969 1.2917 -0.08511 0.71996 -0.043678 -0.33246 -1.1237 0.91208 0.34393 0.59191 0.54159 -0.62981 0.2922 -0.19732 -0.8828 1.9362 0.11764 -1.6405
milion 0.33454 -0.27456 0.67651 -0.51733 0.36345 -0.021328 0.6887 -0.36461 -0.24919 0.56958 -0.46677 -0.52609 0.81735 -0.71859 0.78965 -0.72092 0.013983 0.51527 -0.3331 0.056505 0.2308 -0.021477 0.43866 -0.49971 0.10268 1.3313 0.52468 -0.078279 -0.50431 -0.17066 -0.39638 0.24126 0.13461 1.7934 0.34554 -0.1987 0.12228 -0.53137 0.0059932 -0.42956 0.048094 -0.85564 1.0762 -0.2752 -0.1369 -0.12709 -0.047738 0.46273 0.067239 -0.66119
pick -0.65988 -0.058543 0.96525 -0.32477 0.92359 -0.52619 -1.5616 0.43927 0.060577 -0.40181 -0.20521 0.21938 -0.022561 0.7141 0.3884 0.070361 0.15668 -0.69811 -0.56026 -1.0305 -0.20274 -0.86517 0.42397 0.13758 -0.04801 -1.1929 -0.39002 -0.20813 0.56457 -1.0716 2.209 0.88078 -0.58746 -0.062404 0.88468 0.22841 0.28236 0.43342 0.12089 -0.81186 -0.45689 0.094145 -0.45251 -0.25193 0.0403 0.49178 0.53552 0.12554 0.26341 0.47193
raccoon 0.8377 -0.53097 -0.74241 -0.50646 -0.30155 1.3504 -0.85023 -0.75341 0.63258 -0.675 -0.022394 -0.04494 1.4981 0.053834 -0.7372 0.030819 0.40496 0.52905 -0.80132 0.37997 -0.97296 -0.39288 0.66091 0.90532 -0.018059 -0.56458 -0.84065 1.2664 0.33051 -1.6113 -0.46451 0.22542 0.050729 0.53908 0.16457 -0.12503 -0.63635 -0.85457 0.13854 0.041439 -0.36136 0.33373 0.098563 0.046878 0.58772 -0.85561 0.37288 -0.51598 1.0602 0.20472
bob -1.075 0.18316 0.32895 0.63907 -0.56016 0.57065 -1.6973 0.23407 -0.66 -0.79543 -0.87456 0.47696 -0.54104 -0.010141 0.33098 -0.023072 0.61555 0.078931 -0.26537 -0.673 -0.47385 0.68288 0.19332 -0.35322 0.38568 -1.0739 -0.72973 -0.31692 0.0067417 -0.01463 1.5006 -0.27884 -0.31413 0.071643 -0.37914 -0.11792 0.25749 -0.0093028 0.52836 -0.49904 0.37546 0.85248 -1.2442 -0.094374 0.05246 0.25983 -0.98397 -0.52276 -0.77843 1.8025
kazakhstani -1.5448 0.59661 -0.64075 0.99142 -0.41682 0.37487 -0.43773 0.46296 0.11384 -0.083665 1.6233 0.044702 1.2425 1.2768 0.043611 -0.44693 -0.22941 1.7555 -0.39188 0.63361 -0.35226 -0.040497 0.23172 1.1012 -0.41268 -0.44854 1.2084 0.12655 0.069573 0.37344 -0.17656 -0.61899 -0.84807 -0.11266 0.14725 0.48106 -0.98319 0.71946 0.44981 -0.54956 0.18513 -0.22684 0.32632 0.35986 -1.0222 -0.98103 0.30361 0.11984 0.39659 -0.28358
mmk -0.51285 -0.43577 -0.10095 0.1092 -0.56702 0.056711 0.62061 0.28555 -0.48696 0.024432 0.25461 0.86591 0.56719 0.40401 0.44267 -0.065727 -0.21082 0.51867 0.41293 0.58791 1.1573 -1.6307 -0.38891 0.53489 -0.051852 0.20517 -0.36995 -0.36179 -0.13935 -0.50265 -0.96577 -0.13126 0.69983 0.37623 -0.75749 0.56701 -0.46613 -0.15113 0.65352 -0.010502 0.33193 -0.20036 0.14532 -0.20823 -0.17898 0.051054 0.4568 0.53254 0.40556 0.079329
family 1.1636 0.90386 -0.74277 0.49272 1.88 0.9285 -1.0429 0.01343 -0.51903 -0.68762 0.0083396 0.50754 0.51792 -0.75577 1.0241 0.1761 -0.91889 0.21455 0.19232 0.19562 0.0044282 0.40701 -0.3812 0.51286 0.14278 -1.4652 -0.55194 -0.8362 0.41877 0.40793 2.5335 -0.20787 0.088761 -0.10973 0.52074 0.026259 -0.65515 -0.1425 0.44071 -0.047796 -0.23276 0.17212 -0.16844 0.60122 0.47156 0.11336 -0.96031 -1.3412 -0.021467 0.049217
panamanian -0.11993 -0.48286 -0.042091 0.91414 -0.025825 -1.1384 -0.81848 0.207 0.091787 0.44367 1.3362 1.0218 0.91415 1.0275 0.11418 -0.82722 -1.3167 0.19638 0.35587 -0.081419 -0.74973 0.15708 -0.164 -0.85057 -0.24598 -1.0148 0.78661 -0.026031 -0.21799 0.37828 0.35998 -0.080664 -1.2242 0.42498 -0.11776 0.077256 -0.99996 -0.014496 0.13938 0.32727 -0.28345 0.98455 0.73105 -0.29956 -0.82237 -0.31347 -1.0404 -0.23362 0.55985 -1.4629
centum 0.059352 -0.74097 -0.30744 0.13445 1.0656 -1.069 0.97314 -0.41116 -0.20976 1.3679 0.93357 -0.28388 2.041 -0.19612 -0.50951 -1.1604 -0.50728 1.5826 -0.12987 0.9952 -0.17513 -0.69808 0.51144 0.99668 0.24407 1.2777 -0.32359 0.015054 -0.49388 -0.72607 -0.114 0.28887 0.89723 0.45311 -0.099428 -0.06456 -0.30003 -0.91018 -0.31779 0.4655 -0.064468 -0.56762 -0.21495 -0.24998 -0.23001 -0.99108 0.19505 0.46632 0.83547 0.29246
ethiopian 0.18577 -0.71618 0.19711 -0.052798 -0.028612 -0.48409 -0.5878 -0.11831 0.21233 -1.0091 0.79837 -1.046 -0.18587 -0.62127 -0.00015834 -0.088695 -0.20218 0.37696 -0.030206 0.82475 -0.88068 0.97235 -0.13047 0.18114 0.64013 -0.8807 -0.090472 -0.83239 -0.66325 1.1976 1.4775 0.20816 -1.2711 1.5928 -0.099211 0.27359 -0.45433 -0.094478 -0.9474 1.186 0.32968 0.30051 0.045471 0.083394 0.45782 -0.22009 -0.64465 0.8847 -0.43273 -1.9324
bhutanese -0.39163 -0.63152 -0.6315 -0.48672 0.25152 -0.80623 -0.10514 -0.12222 -0.10744 -0.75147 1.0436 -0.86561 1.4874 -0.40445 1.5727 0.44363 0.42955 0.3833 1.2632 0.75435 -0.61177 0.63817 -0.49661 0.49657 0.18641 0.35149 -0.56039 -0.60038 -0.40392 0.71497 0.27059 0.645 -0.91116 0.89943 0.13306 1.5427 -0.31183 -0.68907 -0.84609 0.20793 -0.49525 0.66413 0.70276 -0.21223 -0.54092 -0.52511 -0.17924 1.2501 -0.8399 -1.9507
brl -0.1207 0.83063 -0.44527 1.233 -0.31957 -0.1644 0.43065 -0.64943 0.082153 0.21087 0.078073 0.67723 0.1272 -0.79288 1.0161 0.87486 0.69383 1.0926 -0.89805 -0.38482 -0.50811 -0.5303 0.077437 -0.37384 -0.72705 1.0454 0.32692 0.050886 -0.55979 0.95525 -1.2822 -0.68463 0.66593 1.1096 0.67637 -0.1092 -0.6235 -0.24591 -0.72858 -1.702 0.50263 -0.67838 0.36504 0.28755 1.7522 -0.14424 0.2416 -0.15202 -0.88061 0.15944
congolese 0.81939 -1.1126 -0.18741 -0.14057 0.14793 -0.54242 -0.42102 0.02538 -0.55564 -0.44146 0.76018 -0.81376 -0.36958 -1.2092 0.079745 -0.46962 0.70252 0.19396 0.58357 -0.2132 -1.1194 1.4771 0.076995 0.68495 -0.83265 0.063123 0.41545 -0.74566 -0.61247 0.9924 1.4176 0.18334 -2.015 0.46564 -0.0032324 0.27424 -1.3304 -1.0618 0.15176 0.17314 0.53049 0.75417 0.079529 -0.90964 -0.07733 -0.46441 -0.58395 0.328 -0.32667 -1.4864
apples -0.36923 -0.35691 -0.32987 -0.07551 0.81323 0.45305 -0.65037 -0.48459 -0.63768 0.31054 -0.57266 0.31192 1.6265 -0.52159 0.75697 0.51591 0.22718 0.68619 0.40798 -0.84201 0.84362 -0.91816 1.8561 0.0024339 0.28179 0.27318 -0.47288 1.0883 0.99814 -1.4856 1.0549 0.057514 -0.15108 0.70384 0.87678 0.40809 -0.94047 0.71144 0.5398 -0.89542 -0.47816 -0.43262 0.2558 -1.1031 0.91453 1.1065 0.40965 0.30975 0.13831 -0.41567
rican -0.80829 -0.18637 -0.95115 0.84433 0.22426 -0.16238 -1.1209 0.2868 -0.53549 0.81052 1.1829 -0.39234 1.6928 0.93029 0.21311 -1.4912 -0.40655 0.30834 0.01243 -0.22736 -1.0683 0.23378 -0.67829 0.17672 -0.22989 -0.8518 0.18138 -0.36727 -0.49786 -0.25638 1.266 -0.1788 -1.2996 -0.52803 -0.33428 -0.052408 -0.75741 -0.64026 0.072659 0.077741 -0.85507 0.94109 0.33307 -0.99995 -0.24396 -0.51233 -0.66384 -0.55643 0.44291 -0.52203
stere 0.19525 -1.4328 0.20825 -0.56746 0.10426 -0.062413 0.98775 -0.057648 -0.55883 0.94843 0.63988 0.42296 0.57162 -0.096553 0.080668 -0.96046 0.33955 0.66057 -0.26521 -0.18423 0.38538 -0.32661 0.23694 0.015293 1.1644 0.50622 0.60766 -0.26271 -0.9887 0.43285 -0.66072 -0.40876 0.23197 0.53628 -1.0682 -0.14477 -0.38756 0.43332 0.24058 0.40959 0.71386 0.65615 -0.55013 -0.11261 -0.75093 -1.3223 0.3421 -0.2994 0.34384 -0.14833
planck 0.096974 0.83459 0.41828 -0.84073 0.33687 0.62862 1.5328 -0.949 0.10752 -0.78972 1.694 -0.54355 -0.50568 -0.38621 -0.15234 0.070847 0.40976 1.1443 -1.1804 -0.24406 0.27372 -0.68188 -0.35279 -0.07992 0.29365 -0.29962 -0.79029 -0.57253 -0.60592 1.1053 0.29707 0.18213 -0.19099 -1.3953 -1.3862 -0.6649 -0.26759 0.64694 1.114 1.001 1.1011 -0.38201 0.2138 0.080079 -0.27604 -0.66197 1.6911 0.076841 -1.2889 0.48262
use 0.36404 -0.16619 0.28584 -0.17042 -0.42253 0.43921 -0.2348 -0.89034 0.063375 0.37835 0.41151 0.72865 0.72612 -0.081949 -0.18455 0.58287 -0.055214 0.19534 -0.022018 -1.2055 0.47209 -0.53655 0.17969 0.056589 -0.19033 -1.7427 -0.19718 -0.44248 0.85523 -0.51624 3.7482 -0.094815 -1.1104 -0.73457 0.36396 0.62193 0.35603 0.14707 -0.42021 0.16994 0.74747 0.14756 0.41393 0.80217 0.58067 0.10242 0.1147 0.40129 -0.086234 0.045505
usd -0.18404 0.58048 1.0696 0.067368 -0.34498 -0.42387 0.78097 -0.87541 0.81605 0.28458 -0.11241 -0.27481 1.29 -1.3787 1.3111 -0.56264 0.057697 1.2606 -0.75473 0.97155 1.1596 -0.87679 -0.1301 -0.78661 -0.43382 0.35362 0.85304 -0.94595 -0.36843 0.19699 1.5786 0.24568 0.22732 0.81765 -0.29218 0.29057 0.21357 -0.79793 0.49784 -1.2881 -0.037357 -0.37696 1.1404 -0.83309 -1.0976 -0.028195 -0.011884 0.12517 -0.15075 0.1681
chf 0.98101 0.66674 0.44387 -0.63255 0.6922 -0.070117 1.3154 -0.12176 0.24524 0.93668 0.466 -1.4564 0.45053 -0.74454 1.5825 -0.69779 0.013396 1.1137 -0.36143 0.32999 0.72915 0.73754 -0.87328 0.51057 -0.65885 1.2822 0.63798 -0.31494 -0.80426 1.3859 -0.020908 1.0036 1.2838 0.61423 -0.90209 0.23722 0.73707 0.15163 1.0543 -0.39333 0.73999 -0.13688 0.5956 0.9432 -0.91235 -0.79997 -0.68963 -0.71932 -0.052033 -0.18107
to 0.68047 -0.039263 0.30186 -0.17792 0.42962 0.032246 -0.41376 0.13228 -0.29847 -0.085253 0.17118 0.22419 -0.10046 -0.43653 0.33418 0.67846 0.057204 -0.34448 -0.42785 -0.43275 0.55963 0.10032 0.18677 -0.26854 0.037334 -2.0932 0.22171 -0.39868 0.20912 -0.55725 3.8826 0.47466 -0.95658 -0.37788 0.20869 -0.32752 0.12751 0.088359 0.16351 -0.21634 -0.094375 0.018324 0.21048 -0.03088 -0.19722 0.082279 -0.09434 -0.073297 -0.064699 -0.26044
fen 0.21691 0.10242 -1.0623 0.79597 -1.9143 0.014669 1.0823 -0.51438 0.52304 0.79584 -0.34053 0.27107 0.45822 -1.3336 -0.67067 0.74216 0.23643 0.26714 0.26495 0.88252 -1.1904 -0.47743 0.53275 -0.12237 -0.51164 -0.64295 -0.34992 0.6053 -0.36293 -0.77925 0.25475 -0.49896 0.30111 1.8034 0.45342 -0.46887 0.38037 0.46612 0.91099 0.48065 -0.099398 0.37195 -0.013238 1.5952 1.0522 -0.60843 -0.04643 -0.66001 0.68377 -0.22816
chi 0.35538 0.67671 -0.4151 0.96793 0.095885 -1.3428 0.69218 -0.63437 -0.54601 -0.042418 0.30816 0.63447 0.2494 0.41975 -0.96349 -0.83953 -1.2195 0.62824 -0.082092 1.1943 -0.32446 -0.27012 0.47332 -0.71676 -0.13341 -1.0128 0.66056 -0.37204 -1.3329 -1.0357 1.9706 0.8294 -0.024234 0.66924 -0.93791 -0.40573 0.17114 -0.082075 0.69633 1.1954 -0.4808 0.081878 -0.35674 0.01817 0.90969 -1.121 -0.3118 -1.0925 0.64502 0.71743
give 0.30577 0.30053 0.22806 -0.14625 0.74309 -0.14415 -0.43512 0.59286 -0.1743 0.47471 -0.13492 0.33909 0.093609 -0.11892 0.31555 0.3845 0.54051 -0.69359 0.24688 -0.93476 -0.041963 0.25972 -0.004559 -0.1688 0.088309 -1.7161 -0.16327 -0.40159 0.13859 -0.93499 3.366 1.1006 -0.96759 -0.092375 0.19996 -0.17415 0.1836 0.20687 0.10418 -0.7353 0.33549 0.11443 -0.016682 0.23897 -0.036168 0.25008 -0.19502 0.70866 -0.039504 0.18456
petroleum -0.55523 -0.40769 0.38452 0.86316 0.43341 -0.85079 -0.95843 -0.49412 1.0913 0.62313 1.2733 0.724 0.408 0.28795 -0.26656 0.64838 0.64747 0.93492 -0.51889 -0.55948 1.6832 -0.67882 0.53012 -1.2892 -0.65105 -0.78478 0.19478 0.25302 -0.038497 1.0714 2.1002 -0.72236 0.028439 0.52677 0.20901 -0.76646 -1.2632 -0.11698 1.4338 1.1845 -0.27494 0.062558 0.22706 -0.77377 -0.2794 0.82787 -0.94291 1.6656 -0.31698 -0.55289
cho -0.37991 0.6101 0.94489 0.27771 -0.34977 -0.34661 0.43858 0.15736 -0.94535 0.068794 -0.62985 -0.20215 -0.20896 -0.31343 -0.31817 0.18914 -0.90104 0.25306 0.59306 1.2456 -0.12058 0.40618 0.54268 -0.34943 0.9982 -1.4517 0.18511 -0.26888 -1.0878 -1.3576 0.65398 -0.55038 0.70097 -0.052888 0.64279 -0.20621 0.90814 0.17803 -0.13696 0.10513 -0.49157 -0.038173 -0.29355 -0.06827 1.8007 -1.5946 0.28054 -0.22074 0.35627 0.64894
cyathus 0.5677 -0.61997 -0.51085 -0.61912 -0.45571 -0.54704 0.89484 0.26989 0.61096 0.37151 -0.077038 1.033 1.1441 -0.0028724 -0.068755 -1.0776 0.49693 0.92405 0.79393 0.30704 -0.86503 -0.82167 0.62746 0.23959 0.35974 1.5227 -0.6927 0.43678 0.11574 0.1261 -1.4113 -0.89492 0.4188 0.56189 -0.54498 -0.038352 -0.022018 -1.4869 -0.71219 0.32452 -0.35235 -0.98712 0.22154 -0.1969 0.19891 -0.69222 -0.51802 0.36959 -0.065269 0.6891
awg -0.0094823 0.32764 -0.067032 0.24004 -0.36133 0.87475 0.77041 -0.223 -0.13224 -0.44337 0.34419 0.28498 0.073931 1.8364 -0.68348 0.36435 -0.4455 -0.21173 0.051059 -0.28514 0.70825 -0.49011 0.10909 0.19356 -0.69361 1.0755 0.2199 -0.03609 0.24296 0.9131 -0.51467 0.10754 -0.44232 2.0748 -0.23404 -0.42567 0.49574 -0.23286 0.48099 0.73029 1.0027 -0.74595 0.59077 0.62388 0.018362 0.21675 -0.064933 0.52396 0.33086 -0.07326
peru 0.56325 -0.10534 -0.21799 1.335 -0.35513 -0.98961 -0.02227 0.44863 -0.32069 0.72776 0.77992 -0.43826 0.70535 -0.20057 0.44197 -0.6322 -0.58263 0.019518 0.25073 0.66106 -0.93496 -0.023471 0.074304 -0.11181 -0.20324 -1.1545 0.39452 0.09372 -0.27182 -0.18068 1.8429 -0.37776 -1.1332 -0.17605 0.076909 -0.25296 -1.2729 -0.15811 0.16515 -0.32012 -0.76888 0.37513 1.3977 -1.3739 -0.57559 0.60141 -0.10711 0.10838 0.44186 -1.4398
taken 0.89173 -0.20309 -0.070216 -0.59429 0.35246 -0.11412 -0.48702 0.44325 0.22071 -0.20085 0.20269 -0.057646 -0.3154 -0.1996 0.41387 0.24245 -0.16135 -0.51214 -0.42707 -0.29396 0.069218 0.52691 0.40494 -0.1844 -0.042019 -1.7872 -0.34064 -0.0023479 0.14808 -0.23022 3.1435 -0.037137 -0.42791 -0.67301 0.31477 0.26581 0.62014 0.18906 -0.17701 -0.0095113 -0.11139 -0.0080193 0.28246 0.087916 0.18167 -0.34941 -0.40559 -0.067306 0.22593 -0.39106
more 0.87943 -0.11176 0.4338 -0.42919 0.41989 0.2183 -0.3674 -0.60889 -0.41072 0.4899 -0.4006 -0.50159 0.24187 -0.1564 0.67703 -0.021355 0.33676 0.35209 -0.24232 -1.0745 -0.13775 0.29949 0.44603 -0.14464 0.16625 -1.3699 -0.38233 -0.011387 0.38127 0.038097 4.3657 0.44172 0.34043 -0.35538 0.30073 -0.09223 -0.33221 0.37709 -0.29665 -0.30311 -0.49652 0.34285 0.77089 0.60848 0.15698 0.029356 -0.42687 0.37183 -0.71368 0.30175
bahamian -0.4646 -0.42434 -0.67115 0.92568 -0.076758 -0.1173 -0.57378 0.73752 0.25158 -0.59575 0.4745 -0.035229 1.8474 0.85037 -0.11545 0.20751 0.037066 -0.15752 -0.068626 -0.21596 -0.082403 0.69805 -0.58769 0.048932 0.19241 -0.53109 0.42501 0.074082 -0.74253 0.11722 -0.50316 -0.35629 -0.12466 0.13832 0.50398 0.032061 -0.29424 -0.70815 -0.096986 -0.11068 -0.55342 1.2114 0.98806 0.17219 -0.64474 -0.58422 -0.55442 -0.060557 0.58855 -0.70946
bulgarian -0.5978 0.43509 0.21707 -0.12741 0.37627 -0.092469 0.41092 1.0508 -1.0768 -0.15979 1.8521 -0.2763 0.59012 0.7676 0.46158 -0.49107 -0.27644 0.51815 -0.032714 0.95561 0.15255 -0.35039 -0.6178 0.47275 0.20272 -1.1324 -0.062137 -0.89266 -0.95742 0.49939 1.448 0.022135 -0.2568 0.40748 -0.12935 1.1166 -0.093333 0.042681 0.11241 0.51414 0.22122 0.53191 0.71121 -1.1871 -0.50506 -0.033944 -0.054099 1.1466 0.14679 -2.1416
diamond -0.4958 0.78421 -0.606 1.3967 0.28888 -0.2058 -0.10745 -0.33252 1.3608 0.15091 0.19023 0.50136 -0.41827 -0.2611 0.46956 0.39022 0.86843 0.67892 -0.32986 -0.58467 0.83354 -0.25948 0.12067 -0.5061 -0.93916 -0.83642 -0.61951 0.42172 0.10125 -0.85066 1.6194 -0.961 0.13247 0.79089 0.40545 0.077664 -0.60847 0.043181 -0.17458 -0.30015 0.091259 0.27662 0.43434 -0.70318 0.37681 -0.81413 0.11575 -0.81965 -0.7771 -0.68963
minim -0.21533 -0.2569 -0.6709 -0.82216 0.40828 -0.33038 0.35624 0.63902 -0.51474 0.20089 -0.029805 0.10588 0.74289 0.33637 -0.35607 -0.82046 -0.13859 -0.63392 0.38507 0.39543 -0.81337 -0.67422 -0.54225 0.55623 -0.43486 1.262 -0.095995 -0.20308 0.35507 0.057847 -0.5071 -0.43189 -0.10249 1.0387 -0.12187 0.17291 -0.048929 -1.1642 0.51363 -0.25067 0.31082 -0.99751 -0.26466 0.54855 0.13944 -0.39813 0.68898 0.25595 0.44408 -0.089707
afford 0.46851 0.038069 0.53219 -0.93241 0.024546 -0.21396 -0.27095 0.52542 -0.1419 0.35242 -0.2132 0.25199 0.7064 -0.48387 0.86564 1.0346 0.49402 0.28557 0.94555 -0.8368 -0.037139 -0.18056 -0.84721 0.42212 0.019895 -1.3739 -0.25424 -0.39974 1.0766 -0.13818 2.2441 1.6769 -0.057356 0.26066 0.43792 0.2711 0.10059 0.60542 0.34908 -0.71372 -0.23668 0.18293 0.80244 1.0724 -0.083027 0.16298 -0.64694 0.22592 -0.12082 0.76403
georgian -0.48507 0.45551 -0.053983 0.032113 -0.43256 -0.37781 -0.10687 1.082 -1.9012 -0.7091 0.28524 -1.0725 0.62445 0.06314 -0.36574 0.17611 0.10438 0.33646 0.51656 0.5246 -0.36276 0.38649 -1.0419 0.057399 -0.28967 -1.063 -0.41613 0.16377 0.16342 0.59299 1.615 -0.91016 -0.88105 -0.056343 0.35867 1.3602 -0.40015 -0.53078 -0.75073 0.6587 0.47857 0.65247 0.85127 -1.3725 -0.25113 -0.1522 -0.59008 0.92275 -0.39183 -1.5952
mvr -0.54595 -0.81659 0.44018 0.54165 -0.23528 -0.32465 1.1348 0.46959 0.11985 0.19556 0.77129 -0.40612 0.62879 0.66559 -0.49647 -0.23695 -0.48685 -0.29295 0.59399 0.37662 -0.60344 -1.0912 -0.048575 0.6036 0.33308 0.91954 0.29905 -0.79919 -0.4242 0.22037 -0.43313 0.10929 -0.21284 0.714 -1.1096 -0.04762 0.38807 -0.37302 -0.7545 0.20372 0.69112 -0.50526 -0.39376 -0.020621 -0.15573 0.15845 -0.24127 -0.53265 0.19336 -0.68706
award -1.3086 1.7375 -0.57947 0.39603 0.54224 0.41411 -0.6104 -0.65784 1.0299 0.58311 0.29289 0.76647 0.23736 0.26949 0.61541 -1.1809 0.84402 0.59988 -1.0476 -0.16932 0.69944 0.12318 -0.41059 -1.0214 0.023593 -1.3111 -1.7193 -1.2015 -1.9113 -0.5664 1.8896 0.4123 -0.36942 -0.74746 -0.22967 0.19631 0.52465 0.35923 0.045232 -1.1562 0.20787 0.55651 -0.8668 -0.8587 -1.3831 -0.33113 -0.46826 0.11572 -0.42546 0.45634
ponto 0.26979 -0.43346 -0.27494 0.22428 -0.58289 0.2028 1.3507 0.27602 -1.0893 0.17636 -0.8676 -0.11782 -1.166 0.25569 0.64633 -0.58099 1.1045 0.54084 0.79173 -0.054427 -0.22911 -0.62908 -0.21364 0.74576 -0.60709 0.88869 0.44313 0.67412 -1.2987 0.077617 -1.1939 -1.0355 -0.33258 1.3173 -0.46365 -0.32707 -0.13357 -0.21236 0.68596 -0.73193 -0.20798 -0.50124 -0.076634 0.047668 0.29808 -0.66877 0.21717 -0.15056 0.94007 -0.15501
glass 0.013121 0.71226 -0.22566 0.12239 0.72298 0.55787 -0.0064484 -0.7054 -0.32206 0.12796 -0.077531 0.055125 0.038379 0.95295 0.043992 0.45025 -0.11435 -0.0012781 -0.32919 -1.8721 1.0702 -0.11634 -0.62644 -0.61095 -0.41408 -0.55053 -0.70974 1.4821 0.53134 -0.53206 2.1137 -1.0961 0.48239 -0.16375 -0.6249 0.72829 0.51436 0.84971 1.0365 0.074664 1.0125 0.47441 0.42126 -0.049965 0.53149 1.2321 -0.27239 -1.4639 -0.33859 -0.97446
train 0.94971 0.34328 0.84504 -0.88519 -0.72078 -0.29309 -0.74678 0.65122 0.47295 -0.74011 0.1877 -0.38279 -0.55899 0.42952 -0.26984 -0.42383 -0.31236 1.3423 -0.78567 -0.6302 0.91819 0.21126 -0.57442 1.4549 0.75456 -1.6165 -0.0085015 0.0029134 0.51304 -0.47447 2.5306 0.85944 -0.30667 0.057765 0.66231 0.20804 0.64237 -0.5246 -0.053416 1.1404 -0.13703 -0.18361 0.45459 -0.50963 -0.025539 -0.02861 0.18048 -0.4483 0.40525 -0.36821
adult -0.11941 0.41365 -0.069033 -0.7823 0.7178 1.3926 -0.4255 -0.97037 1.0668 0.29361 0.42356 -0.26536 1.2586 0.5897 0.66358 -0.11947 -0.54563 0.63848 -0.33372 0.16693 -0.24625 0.70568 1.1828 1.5009 -0.23576 -0.65605 -0.2508 -0.62052 0.092142 0.018576 2.6218 0.23755 0.20075 -0.92991 0.14143 0.26081 0.22187 -0.5568 -0.34384 -1.0049 -0.15775 -0.31162 0.18086 0.97092 0.31748 -0.29818 0.24238 -0.78579 -0.48475 0.92212
botella 0.46178 1.0863 1.1275 -0.30862 -0.85607 0.99567 0.37066 1.2487 -1.0257 0.1481 0.28589 -0.29863 0.19142 -0.22361 -0.65784 -0.85842 -1.2003 0.384 2.0849 -0.33446 -0.9209 0.43468 -0.72317 0.1749 0.56249 0.60784 0.17645 0.43231 0.024414 0.26761 -0.52991 0.1021 0.33385 0.44281 -0.45953 -0.24301 -0.63068 0.034291 0.39582 -0.54545 0.79675 0.029563 0.39454 -1.7754 -0.096488 -0.77739 -0.40724 -0.18314 0.62589 0.48995
coyote 0.70534 -0.28159 0.048371 -0.056982 0.016501 0.13629 -0.76862 -0.89473 0.7047 0.13068 -0.5895 0.060865 0.4381 -0.21756 0.18412 -0.51989 0.97491 0.57671 -1.071 0.2044 -1.1529 -0.6838 0.46193 0.95792 0.43589 -0.41636 -0.36349 0.76322 0.21269 -0.86444 0.16452 -0.54074 -0.17946 0.058494 -0.2538 -0.0309 -0.74322 -0.83476 0.11171 -0.063387 -0.29992 0.68031 -0.71622 -0.27391 0.64096 -0.67388 0.94141 -1.0815 0.40377 0.45931
me -0.14525 0.31265 0.15184 -0.63708 0.63553 -0.50295 -0.23214 0.52892 -0.58629 0.53935 -0.3055 1.0357 -0.77989 -0.19387 1.2215 0.24521 0.26144 0.22439 0.15584 -0.79146 -0.65262 1.3211 0.76618 0.38234 1.4453 -2.2643 -1.1505 0.50373 1.2651 -1.5903 3.0518 0.84118 -0.69543 0.29985 -0.49151 -0.22312 0.59528 -0.076347 0.52358 -0.50134 0.22483 0.01546 -0.088005 0.21282 0.28545 -0.15976 -0.16777 -0.50895 0.14322 1.0118
jpy -0.13842 0.22011 1.5544 -0.20949 -0.22663 -0.10532 1.4012 -0.12078 0.3919 0.17427 -0.13611 -0.19418 0.75812 -0.12263 1.0366 0.059549 0.077342 0.80748 -0.45481 0.29869 0.41412 -0.71409 0.26105 -0.25642 0.20088 0.89848 0.10543 -0.2332 0.04271 0.94072 -1.2171 0.1185 0.047328 0.89169 -0.23874 0.12955 0.12082 -0.96359 -0.005831 -1.3364 0.18938 -0.99153 1.1611 -0.035739 0.056784 -0.17991 0.49846 0.61498 0.71996 -0.20299
room 0.51518 0.80125 -0.13731 -0.472 1.0321 -0.75538 -0.58585 -0.10406 -0.22021 -0.38029 -0.82568 -0.1288 -0.059862 0.8529 0.54697 0.43243 -0.54769 0.35936 -0.14251 -1.2086 0.72885 1.0991 -0.34049 0.014483 -0.20405 -0.98005 -0.07667 1.0827 0.34461 -0.37714 2.8916 0.23911 -0.091089 -0.45495 0.24013 0.92777 0.77564 0.37424 0.84257 -0.34445 0.049718 0.27486 -0.35371 1.0032 0.081324 0.25981 0.17708 -1.1572 -0.080012 0.08214
hour 0.49603 0.5787 0.16638 -0.13394 0.094386 -0.32301 -0.10589 0.51931 0.11409 0.1008 -1.1256 -1.1297 -0.10757 0.57863 0.85962 -0.62181 -0.70217 0.2144 -1.3319 -0.54315 0.94991 1.0213 0.50037 0.26539 0.53437 -0.68183 0.79417 0.45981 0.58345 0.27078 3.3528 0.56603 -0.42534 0.71726 0.17917 -0.15475 0.66508 0.11239 0.17412 0.28794 -0.042736 0.63744 -0.28524 -0.072494 -0.58378 0.029726 0.71582 -0.36279 -0.41792 0.71348
uah -0.30668 -0.48297 0.80016 0.23193 0.50192 -0.60616 0.68238 -0.47811 0.28312 0.36529 0.73649 0.19638 0.98841 -0.2822 0.24255 0.42133 -0.46674 1.3362 -0.9192 0.61491 -0.053847 -0.23495 0.47647 -0.42871 -0.18784 0.14268 1.0108 0.1371 -0.9409 -0.44733 -1.0889 0.34202 0.24085 -0.46516 0.13733 0.20723 -0.13872 -0.11852 0.32338 -1.004 0.30049 -0.29778 -0.059132 0.29675 -0.64302 0.23826 0.67301 0.90921 -0.25596 0.0031655
mm -0.42121 1.3101 2.0947 -0.20472 -0.38575 1.9356 1.2358 -1.9907 -0.29522 -0.95221 -0.59671 -1.7777 0.20371 0.14077 -0.67701 -0.27585 -1.5155 0.26249 -1.6132 0.060459 -0.79752 -0.13444 1.7734 -0.45996 -1.026 0.206 -0.022331 0.81649 1.0074 0.080592 1.9584 -0.42281 -0.069491 0.45199 0.68122 -0.10165 0.63466 -0.19458 -0.55381 -0.15531 0.71787 -0.18083 1.5547 -0.64229 0.20192 1.0037 0.74598 -0.15476 -0.43456 -0.051825
car 0.47685 -0.084552 1.4641 0.047017 0.14686 0.5082 -1.2228 -0.22607 0.19306 -0.29756 0.20599 -0.71284 -1.6288 0.17096 0.74797 -0.061943 -0.65766 1.3786 -0.68043 -1.7551 0.58319 0.25157 -1.2114 0.81343 0.094825 -1.6819 -0.64498 0.6322 1.1211 0.16112 2.5379 0.24852 -0.26816 0.32818 1.2916 0.23548 0.61465 -0.1344 -0.13237 0.27398 -0.11821 0.1354 0.074306 -0.61951 0.45472 -0.30318 -0.21883 -0.56054 1.1177 -0.36595
rood 0.669 0.77651 0.010463 -1.6192 0.63741 -0.68584 0.0043449 -1.4263 0.7877 -0.54278 -0.22894 0.57913 -0.23832 0.82397 0.14337 1.6281 0.75154 -0.64653 0.39891 0.53473 -0.12943 -0.1753 -1.0565 0.28847 -0.31211 -0.2758 0.26124 1.108 -0.94641 0.086704 -0.89154 -0.38458 0.18085 0.34831 0.26033 0.28506 1.2961 -0.30363 -0.39534 0.61183 0.60815 1.565 -0.26964 -0.11317 -0.017203 0.56359 0.679 0.045748 -0.93887 -0.27731
worm 1.4208 -1.2795 0.46265 0.24892 -0.37211 0.37321 0.42301 -1.196 0.96351 -0.098174 -0.22892 0.45306 0.59806 0.37297 0.14166 -0.075533 -0.4043 0.71374 -0.20518 0.23253 -1.0819 -1.1328 0.83147 0.08547 0.95676 -0.85379 -0.17653 0.23005 -0.074616 -0.3278 0.62652 -0.57742 -0.66727 0.45497 -0.91435 0.55806 -0.33797 0.36811 0.027871 -0.39131 0.013054 0.45691 -0.65963 0.39847 1.359 0.52898 1.0271 -1.0942 0.25701 -0.2622
mu 0.57897 1.2143 0.77731 0.57873 -0.085929 -1.0754 0.96961 -0.6085 -0.38165 0.87685 0.32696 0.39102 1.055 -0.45819 -0.19755 -0.51605 -0.53822 1.501 0.0053221 1.2976 -1.1526 -0.79766 1.4196 -1.4281 -0.26096 -0.036517 -0.28417 -0.44925 -0.9213 -0.21399 0.99328 0.056308 -0.15665 1.0426 -0.21551 -0.31447 -0.27285 -0.1053 0.79937 0.78493 -0.94604 -0.37459 -0.34145 0.53876 0.095654 -1.2962 -0.55983 -0.66554 -0.63964 -0.072965
dop -0.28422 -0.47765 -0.82686 -0.92621 -0.58226 0.11056 1.3119 -0.8129 -0.5367 0.41387 0.59746 0.30541 -0.12846 0.48419 -0.35943 -0.29229 0.13388 0.018301 0.45499 0.22466 -0.33186 -0.65277 0.06222 -0.40044 -0.44923 0.20197 -0.69451 0.74511 -0.56468 -1.0647 -0.5907 0.35126 -0.61343 1.0421 -0.54903 -0.46385 0.75537 -0.001169 1.074 1.2127 0.41952 -0.099744 0.46604 0.0039676 -0.69951 -0.15646 0.48993 1.1705 0.2424 0.080103
crickets 0.91125 -0.83438 -0.64837 -0.41321 0.55425 -0.57386 -0.63147 -0.19917 0.1067 0.42636 0.061482 0.21327 1.061 0.14827 0.071509 0.32195 0.41229 0.20506 -1.215 -0.2544 -0.71143 -0.15783 1.5625 0.77717 0.25043 0.81059 -0.15234 -0.10122 -0.064078 -0.7361 -0.1954 -0.14193 -0.025379 0.39215 0.11884 -0.51864 -0.078384 -0.80125 0.1598 0.51129 0.1898 -0.40362 -1.17 1.5676 1.6065 0.29152 0.74507 -0.26691 -1.7171 0.11697
can 0.8052 0.37121 0.55933 -0.011405 0.17319 0.195 0.057701 -0.12447 -0.011342 0.20654 0.41079 0.89578 0.31893 0.030787 0.60194 1.2023 0.68283 -0.13267 0.16984 -1.4674 -0.41844 -0.47395 0.7267 0.61088 0.44584 -1.4793 -0.50037 -0.12249 0.75994 -0.77112 3.9653 0.38077 -0.6439 -0.84899 0.07554 0.17522 0.30117 0.12964 0.27253 -0.32951 0.34211 0.15608 0.20953 0.97948 0.35927 0.19116 0.45494 -0.1895 -0.20902 0.47612
ern -0.49478 0.53833 1.1337 0.37979 -0.2389 -2.1185 0.42731 0.46016 -0.17547 -0.69915 -0.42551 1.3625 -0.20819 0.55539 0.43525 0.29927 -0.061008 -0.40221 -0.14973 0.19163 0.47491 -1.2507 0.99783 0.61142 0.12502 0.40839 -1.6115 -0.61004 0.33629 0.76535 -0.39057 0.76109 0.94715 0.80718 0.060366 -0.53473 -0.98986 -0.79334 1.1612 -0.13691 -0.03183 -0.22772 0.819 0.63511 0.52103 0.16001 0.76216 1.42 1.01 1.0041
cad 0.6879 -1.0807 0.76389 0.28287 -0.56951 0.25814 0.7269 -1.8613 -0.39737 0.37966 0.32242 0.44408 0.48353 -0.23945 0.26431 -0.49707 -0.53128 1.332 0.33829 0.22422 0.123 -0.25842 -0.95105 -0.16393 0.16859 0.13253 0.18625 -0.74947 -0.43791 -0.41556 0.39082 -0.64548 0.10749 -0.27115 0.013953 0.90086 -0.022196 0.3561 0.30575 -0.86305 0.83194 0.072914 0.97492 0.42184 -0.0038285 -0.91901 1.17 0.36062 0.68483 0.72285
vodka -0.61554 0.040987 -0.84711 -0.078602 0.22401 0.87854 0.11446 -0.013751 -0.20705 1.7684 0.56624 0.1819 0.68286 -0.20363 0.5922 -0.15638 -0.31141 1.1357 -0.42239 -1.4312 0.76534 -0.6474 0.78257 0.3866 -0.81485 -0.71955 -0.83607 1.3636 1.2387 -0.31027 -0.016538 0.72999 -0.47317 1.3091 0.30913 -0.3626 -0.70823 0.63311 0.55068 0.54502 0.88389 0.62257 -0.11695 -0.36367 0.19208 0.88728 -1.0639 0.27753 0.43783 -0.73472
uruguay -0.23611 0.031758 -1.0101 1.0408 -0.62919 -0.75547 -0.1614 0.5383 -0.43745 0.51092 0.91057 0.047937 0.11051 -0.05014 0.55766 -0.95499 0.42196 -0.69138 -0.1365 0.39202 -0.9861 -0.6519 0.37806 -0.084488 -0.4727 -0.27675 1.5333 0.42947 -0.39353 -0.55228 1.7916 0.14078 -0.60056 0.033476 -0.76549 -0.24569 -0.70657 0.70725 0.14833 -0.54666 -0.45226 -0.15179 1.4332 -1.4858 -0.78428 1.0251 -0.29068 0.10969 0.2023 -1.1487
czk 0.46165 -0.31913 1.0954 -0.1478 -0.20957 -0.19535 1.505 -0.24607 -0.37605 0.26414 0.0068019 -0.29147 0.91533 -0.60201 0.82912 -0.2149 -0.64525 0.62996 -0.64044 0.64234 0.60484 -0.60579 -0.19902 -0.43511 0.61076 0.91794 0.016142 -0.7966 0.30567 0.5519 -1.0066 0.47588 0.12544 0.90164 -0.20644 -0.023806 0.74711 0.016239 -0.29097 -0.097366 0.8396 -0.55671 0.99495 0.54387 -0.84182 0.014423 0.20554 0.78372 0.27936 0.094364
mga 0.49319 -1.4855 -0.085401 1.5465 -0.12768 -0.43468 0.82313 -0.62066 -0.7259 0.5483 0.58034 0.57523 -0.43303 -0.49644 0.028796 0.12373 -0.80845 0.73129 0.34139 0.22503 0.66813 -0.65002 -0.40077 0.35898 -0.93185 0.033795 -1.2089 -0.35418 -1.1687 -2.0661 -0.80247 0.7631 0.23901 0.22284 -0.15467 -0.45628 0.33694 -1.1492 0.12462 -0.064575 -0.12611 -0.14359 -0.4159 -0.24329 -0.5579 -0.39519 -0.15598 -0.24588 0.78821 0.22114
kyd 0.68797 -0.41465 -0.48267 -0.20537 0.11579 -0.31174 0.58129 0.82221 0.23376 -0.23623 0.5971 0.4566 -0.74208 -0.30695 0.8175 0.77394 0.95007 -0.47488 -0.0079375 0.13585 -0.58825 0.21918 -0.6588 -0.043649 0.077058 1.017 0.12163 -0.090771 -0.61119 0.29985 -1.0163 -1.6806 0.68556 0.27462 0.096891 -0.1261 0.8227 -0.63344 1.1764 0.92267 1.0688 0.29276 0.22554 -0.14635 0.58864 0.29103 0.68567 1.4027 -1.6033 0.59053
high -0.65758 1.2502 0.19082 -0.6742 -0.10125 -0.046932 -0.27648 -0.48253 0.39254 0.3704 -0.24111 -0.6429 0.27676 -0.62422 -0.52203 0.29799 -0.1996 0.36884 -0.81686 -0.48865 0.11511 0.066147 -0.38797 -0.18239 -0.5759 -1.8776 0.61045 0.43434 -0.090497 0.17718 3.4808 0.026707 0.60486 -0.7885 1.248 -0.32864 -0.15526 0.12868 0.65885 -0.27297 -0.69856 0.46953 0.19621 0.40444 0.061996 0.046055 0.72038 -0.45636 -0.19089 0.099351
lesotho 0.57378 -1.1142 -0.43839 0.94165 -0.48406 -0.17416 1.1976 0.20936 0.58189 -0.8066 0.20431 -0.40402 0.80236 -1.3009 -0.0731 0.47513 0.04676 0.75918 0.53315 0.31451 -0.40471 0.55175 0.60159 0.15639 0.19623 0.043561 0.39984 -0.54924 -1.4205 1.0558 1.0932 0.66661 -1.0248 0.8819 0.15555 0.75219 -0.36077 -0.24614 -0.10094 -0.84936 -0.20026 0.77701 -0.058486 -0.93942 -0.22508 1.4752 -0.55522 -0.43407 0.23854 -1.7169
burundian 1.1842 -0.76612 0.10973 -0.49451 0.25012 -0.91242 -0.36077 0.11511 -0.94934 -0.26938 0.52117 -0.99843 0.31024 -0.54098 0.53535 -0.69223 0.70403 0.29116 0.84166 0.048801 -0.9831 1.3037 0.11295 0.35679 -0.56404 0.59585 0.74242 -0.47556 -0.66331 1.2915 0.70252 0.41966 -2.2024 0.2775 0.59185 0.69331 -1.1813 -0.88009 -0.12987 0.76074 -0.42476 1.0935 0.42458 -1.2577 -0.68702 -0.34652 -0.83073 1.0717 -0.19672 -1.7715
ngan -0.75804 -0.015443 0.41104 0.21488 -0.59347 -0.78337 0.40464 -0.11704 0.55497 0.23811 1.4926 0.059991 0.75845 0.31556 -0.14979 -0.039297 0.47846 0.37619 0.37558 0.15742 -1.4818 -0.23548 0.47837 0.11145 -0.017298 0.2309 -0.17145 0.035526 -0.40246 -0.22025 -1.0939 0.67251 -0.1539 0.42222 0.34843 -0.21211 0.82485 0.8195 -0.20149 0.45882 -0.15733 0.53256 0.6386 -0.32613 -0.061195 -2.3675 -0.56244 -0.90827 0.90553 0.94751
gallon -1.6284 0.019412 1.1003 -0.57466 0.20747 -0.52415 -0.89507 -0.88324 -0.31654 0.36349 0.16621 -0.78149 1.5856 -0.059834 1.1497 -0.13396 -0.50571 1.2029 -1.9982 -1.8302 1.042 -0.86708 0.063609 -0.93418 -0.17529 -0.34453 0.7874 0.98415 1.7259 1.6229 1.535 0.3168 -0.25442 1.384 0.8544 -0.80628 -0.089239 0.16813 1.5694 0.27103 -0.081763 0.32821 1.061 0.1591 -1.2301 0.25362 -0.023033 0.39741 0.90875 0.58164
airplane 1.2977 -0.29922 0.66154 -0.20133 -0.02502 0.28644 -1.0811 -0.13045 0.64917 -0.33634 0.53352 0.32792 -0.43206 1.4613 0.022957 -0.26019 -1.1061 1.077 -0.99877 -1.3468 0.39016 0.43799 -1.0403 -0.36612 0.39231 -1.3089 -0.82404 0.63095 1.2513 0.10211 1.2735 -0.0050163 -0.39469 0.36387 0.65099 -0.21433 0.52291 -0.079013 -0.14676 0.89248 -0.31447 0.090903 0.78216 -0.10842 -0.3186 0.16068 -0.20168 -0.095033 -0.010109 0.19048
dress -0.77318 0.34386 -1.9414 -0.77677 0.79316 0.20095 -0.15134 -0.81112 -0.62296 -0.86132 0.084821 -0.2078 0.29567 0.3246 0.27001 0.43369 -0.98171 -0.43157 0.54172 -1.5346 -0.030456 0.58648 -0.095475 0.045125 -0.8933 -1.0634 -1.5099 1.0308 0.3999 -1.1184 1.8495 0.91909 -0.51057 0.34021 0.23894 0.47147 0.077344 0.46934 -1.1299 -0.32454 0.20254 0.48451 0.46428 -0.090925 0.44787 -0.98459 0.45304 -1.2673 -0.30428 0.26306
tan -0.3604 0.32364 -0.74983 0.95101 0.49193 -0.76082 0.25859 -1.2369 -0.24047 -0.34534 0.65459 0.87619 0.050542 -0.40853 -0.62021 0.48169 -0.30574 -0.16156 0.39173 -0.0096886 -0.4994 0.71638 0.66924 -0.96997 -0.34006 -0.53954 -0.18233 0.66879 -0.75124 -0.10479 1.3009 0.2529 0.026842 0.89243 0.65378 -0.071673 0.26658 0.20812 0.14837 0.085883 -0.10428 0.86214 0.08486 -0.75822 1.0208 -1.5281 -0.70041 -1.3308 1.5631 0.35869
tapestry 0.38886 -0.38471 -1.7356 -0.17181 0.97729 0.29479 0.41168 -1.611 0.30415 0.19409 -0.34172 -0.41239 -0.46294 -0.15562 0.027007 -0.23306 0.38751 0.031139 0.51491 -0.58848 0.78628 0.45077 -0.73151 -0.15343 -0.27205 0.6209 -1.4382 0.44562 0.15545 -0.47701 0.28904 -0.49183 0.01004 0.055251 -0.47346 0.41622 -0.90408 0.61039 -0.40816 0.39789 0.3746 0.063271 0.11767 -0.36036 -0.26824 0.63873 0.72368 -1.0102 -0.67935 -0.87504
swedish -0.57288 -0.071822 -0.44958 -0.0093645 -0.017481 1.1567 -0.70637 0.5988 -0.28292 -0.62753 1.9554 -0.28 -0.18387 0.80617 0.74976 0.26771 0.15468 0.11167 -0.74834 0.51644 0.88166 -0.0483 -0.6653 0.96348 -0.035658 -1.5257 -1.334 -0.75787 -1.0378 0.60683 1.7462 0.017043 0.14906 1.148 -0.17223 0.14073 0.36411 0.27929 0.32483 -0.092368 1.036 0.42319 0.58145 -0.85527 -0.03957 -0.096418 -0.43513 0.92529 -0.097775 -0.96168
afn -0.056005 -0.54487 0.3981 0.2399 -0.16904 -0.84544 0.49291 -0.35507 0.37875 -0.15694 1.3397 0.0077603 -0.265 0.75118 -0.16863 0.1855 0.13442 0.9215 -0.65678 0.57162 -0.087822 -0.3253 0.049173 0.62462 -0.41167 0.45745 0.16486 -0.2099 -0.50545 0.37317 -0.70031 0.60574 -0.22846 0.1848 -1.2806 -0.012862 -0.037566 -0.64206 -0.19155 1.0828 1.2042 0.19932 -0.4132 -0.22283 -0.82267 0.40764 -0.087285 1.0599 -1.1458 0.025536
kuwaiti -0.69975 -0.007924 0.29888 0.24066 1.2358 -1.2307 0.088644 0.70907 0.47418 -0.49537 0.22186 -0.3545 0.88684 0.73861 -0.13525 0.19326 0.18025 0.32034 0.014844 1.3037 0.82407 0.71496 1.0544 -0.49872 -0.74569 -1.2064 -0.056524 -0.25272 0.26198 1.1932 1.3436 -0.029668 -0.27235 1.3623 0.35944 0.49879 -0.23289 -0.43687 -0.42436 0.69313 0.14861 0.0033226 0.58596 0.29695 0.0051293 -0.58314 -1.8216 1.6381 0.083463 -1.0745
gourde -0.13413 -0.6849 1.1973 -0.44615 0.97708 0.048738 0.20713 -0.10245 -1.0877 -0.10456 0.91856 0.20051 -0.29787 0.18805 0.13424 -0.046479 0.19221 0.37693 0.1476 0.11623 -0.54744 -0.25752 -0.66875 -0.45468 -0.51768 1.0791 0.14589 -0.10032 0.086402 0.34128 -1.1974 -0.15374 0.27091 0.64805 0.20583 0.2923 -0.43516 -0.19693 1.1557 -0.16078 0.77309 -0.034642 0.45753 -0.57973 -0.40077 0.15432 0.27682 1.0621 -0.26517 0.09134
macanese 0.19597 -1.2185 -0.94794 0.20054 -0.66394 -1.0069 0.20147 0.73063 0.043039 0.72949 0.57488 -0.14352 2.3414 0.39976 0.76904 -0.38918 -0.018708 0.65037 0.93121 -0.31816 -0.39207 -0.29851 -0.36733 0.78712 0.62649 -0.023652 0.027754 0.10685 -0.15475 0.22851 0.071424 0.16717 -0.4193 0.78461 0.1114 0.32385 -1.0157 -0.30577 -0.33101 -0.27612 -0.5479 0.48668 0.88658 0.75072 -0.093069 -1.037 0.0077665 0.96041 0.80194 -1.0096
synodic 0.91905 -0.22839 -0.032098 -0.023896 0.31484 -0.71449 1.016 0.46273 0.69073 -0.06726 -0.096612 -0.43401 0.56231 0.98339 1.5125 0.20426 -0.95822 -0.81264 -0.055083 1.2693 -0.60648 -0.89254 0.44278 -1.2224 -0.5774 1.1559 0.63298 -0.23421 0.61654 1.7714 0.44707 -0.24651 -0.095276 1.86 0.18687 -0.18526 0.33209 -0.66493 -0.10186 0.15995 -1.76 0.12884 -0.51733 0.52594 -0.58128 -0.93934 1.0956 0.65601 -1.9005 0.95453
egyptian 0.53358 1.05 -0.32885 -0.13417 0.65501 -0.7838 -0.53659 -0.069053 -0.1709 0.19219 0.2776 -0.012688 0.055352 0.93463 0.088418 0.2454 0.119 -0.30092 0.03612 1.3588 0.59818 0.91587 0.47273 -0.23173 -0.22307 -1.3903 -0.32648 -0.18273 -0.60165 0.8073 2.1149 -0.59525 -1.0128 0.83837 0.58167 0.45145 -0.0056295 -0.19045 -0.82086 1.2401 0.15742 0.31052 0.44705 -0.1217 0.8758 -0.57345 -0.97534 1.1178 0.089533 -1.8977
kuna -0.40662 -0.17624 0.53466 1.4626 0.22864 -1.816 0.45715 -0.38483 -0.22657 -0.82384 0.19251 -0.6629 1.3681 -0.70202 1.0683 -0.083158 -1.5084 0.67773 0.86742 1.7574 -0.59686 -0.20248 0.69566 -0.57372 0.16443 -0.002348 -0.33409 0.54621 -0.2166 -0.041823 0.81568 -0.33721 0.37335 1.7684 -1.2242 0.19025 -0.045508 -0.70108 0.20392 0.70656 0.56998 0.60147 0.4321 -0.1522 -0.52613 -0.36991 -1.0081 2.2172 0.17086 -0.41838
guatemalan -0.041132 -0.42516 -0.47504 0.73104 0.37532 0.11987 -0.721 0.07773 -0.43678 -0.39976 0.7489 -0.74007 0.53056 0.37636 0.68091 -1.2046 -0.57157 0.27751 0.89838 0.29398 -1.2348 0.66984 -0.11743 -0.091383 -0.76916 -0.59742 -0.021006 -0.38607 -0.37759 0.12059 0.48564 -0.20309 -1.9926 -0.19307 0.013879 0.59781 -1.3722 -0.29427 0.60974 0.43553 -0.64331 0.79185 0.59829 -0.78089 -0.36138 -0.5647 -0.40386 0.40449 0.064676 -1.2061
dessert 0.26081 0.61255 -1.6684 0.37043 0.75637 0.34445 -0.58799 0.45801 -0.13248 0.60108 -0.51892 0.060424 1.4787 0.94232 0.86812 -0.083971 -0.1594 0.19488 0.57525 -1.4453 0.81158 -0.64496 0.89813 1.0025 0.22887 0.18053 -1.2058 0.95295 1.0758 -0.41659 1.0849 0.10545 -1.0817 1.9201 0.81506 -0.075816 -0.62919 1.698 0.40046 -0.046506 0.38056 0.36988 -0.35852 0.13728 -0.080509 0.63922 0.23543 -0.092841 0.27298 0.065767
cheetah 0.19133 -0.43073 -0.047762 -0.12378 -0.37424 0.35931 -0.3291 -0.98715 0.83694 -0.034701 0.77249 0.28795 0.49654 0.072387 -0.5041 0.022501 0.363 1.0688 -0.79112 0.013262 -1.2017 0.098897 0.097882 0.27849 0.7328 0.16249 -0.40969 0.020105 -0.22817 -0.9296 0.055873 0.87732 -0.32944 0.48351 0.011314 0.28983 0.17445 -0.45876 -0.30583 -0.96085 -0.29545 -0.9215 0.10503 -0.12815 0.47555 -0.072984 0.76891 -0.55308 0.49495 0.021137
goat 0.1156 -0.41737 -1.394 -0.68815 0.70335 1.4321 -0.89887 -0.61391 0.38547 -0.26584 0.19113 -0.050002 1.4636 -0.16297 0.19838 0.085361 0.61288 0.71296 -0.43254 -0.095767 -0.6454 -0.53891 0.49006 0.61066 0.18056 -0.30041 -0.48492 0.89223 0.58719 -0.5962 0.90922 0.081159 -0.42649 1.6652 0.013048 0.36209 -0.42714 0.23003 0.72911 -0.43867 -0.039987 0.072325 -0.6279 0.0007626 1.2954 0.27369 0.14841 -0.34105 0.57465 -0.55114
stock -0.0743 -0.77841 0.49341 0.73968 0.7554 -0.78968 -0.63113 -0.54916 -0.43567 0.68255 0.074013 0.36359 -0.60005 -0.34957 0.42048 0.73399 -1.111 -0.39159 -0.97131 -0.85833 2.0588 -0.39448 0.11897 -0.23794 -0.97022 -1.0812 -0.16123 0.18695 0.36667 0.30179 3.2035 0.037224 1.132 0.67364 0.45764 -1.6357 -1.2271 -0.29407 0.6426 -0.74074 -0.43575 -0.3363 0.45234 0.57153 0.0029191 0.10863 0.31306 0.49593 0.82498 -0.16104
tajikistani -0.97606 0.15003 0.081154 -0.13611 0.089608 -0.58239 0.33317 0.32096 -0.98769 0.53149 0.21974 -0.78221 1.0915 1.3784 0.28249 -0.60714 -0.25864 1.4105 0.80397 0.58254 -0.81048 0.17628 -0.63636 0.72858 -0.74885 0.61342 1.3597 0.25951 0.29798 1.2713 -0.3252 -1.2549 -0.6582 -0.050383 0.35669 0.97447 -0.58165 0.24677 -0.013306 -1.3853 -0.29059 -0.20613 0.173 0.28803 -0.89561 -0.46892 0.49565 0.09654 0.089311 -0.088314
fr -0.037071 0.55085 -0.31646 -0.93793 0.3874 -0.26148 0.073579 -0.22856 -0.91645 -0.262 0.66079 0.8645 -0.71446 -0.64792 0.04629 -0.85003 -0.68868 -0.13598 -0.097856 0.52776 -1.0898 -0.18943 -0.2993 0.04936 -0.49208 0.45419 0.86382 -0.88875 -0.72269 0.59889 0.7167 -0.37306 -0.16628 -0.42916 -0.090079 -0.0088715 0.70615 -0.24942 0.58071 0.75278 0.52626 -0.14958 -0.45919 -0.30756 -0.42928 0.82211 -0.14575 -0.60242 -0.20853 0.31274
fs -0.36732 -1.0373 0.025359 0.12901 -0.42781 -0.56372 0.14498 -0.5987 0.27409 -0.86702 0.52141 0.40978 -0.54702 -0.48892 -0.9489 -1.3721 -0.61266 0.53135 -0.33625 -0.033814 -0.4578 -0.39113 0.24571 0.43826 -0.19808 0.81274 0.21427 -0.24154 -0.0099815 -0.62113 0.13553 0.42788 0.36427 1.1182 -0.055962 -0.17019 0.59738 -0.2528 -0.48879 0.43043 1.0335 -0.67213 0.3771 -0.74703 -0.73819 -0.081302 0.14323 0.079981 0.080381 1.0764
ft -0.25391 1.3153 1.7881 -0.45329 0.30622 -0.53163 0.42168 -1.5726 -0.14039 -0.78708 0.14156 -0.95718 -0.33784 -0.36222 -0.094501 -0.054547 0.18244 0.47971 -1.5035 -0.44331 -0.40246 -0.075098 0.090113 -0.15521 0.027674 0.69052 0.45145 0.86777 -0.48637 0.57651 1.902 -1.1912 1.3235 0.9999 -0.38436 -1.0865 0.55015 -0.10935 0.38089 0.044267 0.87992 -0.87836 1.6447 0.21676 -0.46258 -0.54997 0.85656 -0.43839 -0.18608 -0.24373
aoa -0.51523 -0.46446 -0.386 -0.27578 -0.49777 -0.053658 0.46348 -0.34876 0.163 0.087225 1.2329 -0.10797 1.3718 0.84637 -0.20606 0.22917 -0.62273 0.27252 -0.41969 0.065172 -0.78011 -0.16951 -0.34115 0.54713 -0.26748 0.80047 -0.066957 -0.59511 -0.86655 0.49094 -0.78785 -0.32441 -0.63242 -0.017865 0.34846 -0.088134 0.093853 -0.89059 0.42003 -0.51206 0.065729 -0.30918 0.57539 0.41924 -0.022581 0.31776 1.0222 0.96754 0.088016 -0.10536
lak 0.18293 0.17893 0.018467 1.3517 -2.0545 -0.86211 0.94397 -0.16026 -0.50648 -0.66431 -0.2266 -0.13487 0.49958 -0.67695 0.36057 0.56487 -0.54464 1.1263 0.39909 1.4928 -1.5398 0.016991 0.019937 0.73735 -0.24186 0.56762 -0.59264 -0.21489 -0.34226 -0.11093 0.18247 0.35695 -0.06028 1.8176 0.77727 1.1341 0.33398 -1.5334 1.4904 -0.091979 -0.32495 0.45049 0.28454 0.33808 0.36695 -0.13152 0.59013 -0.022049 1.0423 0.048464
botswanan -0.7726 -1.0782 -0.71258 0.50533 0.89429 -1.2107 0.12236 -0.37937 -0.26446 -0.4619 0.63568 0.1943 1.1868 -0.7104 -0.052392 0.29016 -0.031632 1.5632 0.37521 -0.36377 -0.11119 1.0779 -0.067207 -0.11713 -0.60983 -0.054363 1.2985 -0.098259 -1.1446 1.3856 -0.57334 -0.19199 -0.74654 0.3029 0.60366 0.65418 -2.0423 -0.12667 -0.97213 -1.2824 -0.011198 1.3929 -0.41711 -0.54433 0.064165 -0.24416 0.064399 0.30075 -0.6029 -0.91499
after 0.38315 -0.3561 -0.1283 -0.19527 0.047629 0.21468 -0.98765 0.82962 -0.42782 -0.22879 0.10712 -0.3087 -1.2069 -0.17713 0.88841 0.0056658 -0.77305 -0.66913 -1.3384 0.34676 0.5044 0.5125 0.26826 -0.65313 -0.081516 -2.1658 0.57974 0.036345 0.0090949 0.25772 3.4402 0.20732 -0.52028 0.026453 0.17895 -0.017802 0.36605 0.34539 0.41357 -0.2497 -0.49227 0.17745 -0.43764 -0.3484 -0.057061 -0.039578 -0.13517 -0.4258 0.13681 -0.77731
ssp 0.47132 -0.57782 0.43261 -0.13667 0.041701 0.76316 0.53387 -1.3333 0.35788 -0.53449 -0.13503 -0.32569 0.25895 -0.3348 -0.61482 0.059522 0.33988 1.339 -0.15915 0.54074 -0.47081 -0.15586 0.91016 0.76039 -0.59506 0.30507 0.60936 -0.46464 -1.3228 0.61926 -0.32514 -0.034476 -0.86152 0.1943 0.19935 -0.025553 0.16889 -1.185 -0.66439 0.13644 0.21488 -0.20456 -0.66645 -0.14266 0.87889 0.33903 -0.54947 0.56049 0.31837 -0.19813
millimeter -0.060085 -0.2251 1.7564 -0.46076 0.39961 0.48917 1.3652 -1.0189 -0.3624 0.59453 -0.071969 -1.8317 0.87605 0.83423 -0.66985 -0.41459 0.073653 0.32227 -1.4921 -0.36926 -0.66223 -0.26953 0.94139 -0.6099 -0.11891 0.45815 -0.24552 0.61929 1.0647 -0.71478 0.71557 -0.60294 -0.4843 0.80633 -0.43173 -0.062625 0.23777 0.68494 -0.031639 0.76375 1.058 0.89428 0.22562 0.46843 -0.37438 -0.69627 1.3137 0.19655 -1.3324 0.13032
gip -0.3924 -0.045751 0.36045 0.25656 1.085 -1.4662 1.607 -0.35579 -0.71114 0.70901 0.23279 -0.5083 -0.619 0.92324 1.1292 0.076683 -0.79531 -0.82673 -0.41693 -0.43449 0.72514 -0.081589 -0.11523 1.5347 0.18287 1.3417 -1.886 -0.85755 -0.40558 0.081293 0.23621 0.083104 0.7831 0.33055 0.30464 -1.182 0.17051 -0.77632 -0.054662 -0.57893 0.15866 -0.80976 0.8785 0.55029 0.15199 -0.23065 2.3137 0.34303 0.78438 0.92423
pigs 0.87355 -1.4147 -0.22584 -1.0802 -0.024049 0.48896 -0.55134 -1.0515 1.1462 -0.0038293 0.43345 -0.080334 1.7503 -0.34698 1.004 0.25462 0.29756 0.57928 -1.1827 0.47092 -0.55948 -0.63057 1.2755 -0.10104 0.45515 -0.96779 -0.22643 0.0056248 0.48303 -0.64081 1.068 0.3926 -0.33432 0.5428 -0.51843 0.26993 0.28139 0.13266 -0.076688 0.15747 -0.62359 -0.045687 0.35834 0.50433 1.7182 0.20111 -0.40932 -0.38652 -0.36744 -0.23857
mad 0.1029 -0.55458 -0.37631 -0.45873 -0.21767 0.68999 -0.32945 -0.53862 0.68655 0.3694 0.34732 0.46372 -0.26929 0.24286 1.3154 0.59647 0.52904 0.64104 -1.1171 0.57534 -0.33915 0.059412 0.81613 1.0518 0.99056 -1.8868 -0.78667 0.28405 0.41754 0.0021919 1.2127 0.01927 -0.016614 -0.087073 -0.82405 -0.22826 0.26129 -0.41281 0.25444 -0.62373 -0.14879 0.20266 -0.21411 0.17991 1.3695 0.76665 0.02975 -0.30569 0.6 0.25445
quetzal 0.22849 0.19601 -1.5842 -0.067942 0.21375 -0.21212 0.80442 -0.6903 0.32085 0.82075 0.49189 0.27972 1.75 0.46767 -0.20664 -0.13452 -0.49383 -0.58093 -0.57745 0.2776 -0.89138 -0.27951 -0.14548 -0.65784 -0.81433 0.71071 0.27207 1.5191 0.093385 -1.0049 -0.94684 0.23689 0.29572 -0.16736 -0.17931 0.090342 0.37162 -0.69202 -0.81074 -0.56267 -0.12243 0.40322 0.86201 -0.7547 -0.44133 0.15556 -0.10492 -0.62025 0.44697 -0.30562
dove -0.46513 0.35314 -0.25683 -0.22902 0.93265 -0.18534 -1.3417 -0.80223 0.78714 -0.047458 -0.076277 0.44006 0.72018 1.1674 -0.76619 -0.2911 0.35529 -0.35911 -0.91437 -0.032939 -0.083662 0.44091 0.58311 -0.82726 0.23255 0.079893 -0.80236 0.55658 -0.52415 -0.47105 0.69098 0.08256 -0.51342 0.86822 -0.43614 -0.11261 -0.38294 -0.56148 0.40332 -0.43269 -0.05936 0.08452 -1.0392 -0.5388 -0.18495 -0.12426 0.17533 -0.65842 0.033829 -0.46288
npr -0.36455 0.25188 0.34727 0.24072 -0.2264 -0.22503 -1.0726 -0.043777 0.14912 0.21383 0.0013327 -0.23718 0.31269 0.70437 0.52255 -0.15686 -0.59438 0.87445 0.41347 0.31282 0.63413 0.66053 0.98843 1.2413 0.44208 0.076885 -0.35376 0.51404 -0.688 -0.16956 0.76253 0.19205 0.61329 -0.81798 -1.1864 -0.1818 0.17306 -0.53979 -0.1845 -0.036698 0.66018 0.23543 -1.4088 -0.21992 -0.76441 -0.13893 -0.49634 1.1727 -0.65522 1.4473
a 0.21705 0.46515 -0.46757 0.10082 1.0135 0.74845 -0.53104 -0.26256 0.16812 0.13182 -0.24909 -0.44185 -0.21739 0.51004 0.13448 -0.43141 -0.03123 0.20674 -0.78138 -0.20148 -0.097401 0.16088 -0.61836 -0.18504 -0.12461 -2.2526 -0.22321 0.5043 0.32257 0.15313 3.9636 -0.71365 -0.67012 0.28388 0.21738 0.14433 0.25926 0.23434 0.4274 -0.44451 0.13813 0.36973 -0.64289 0.024142 -0.039315 -0.26037 0.12017 -0.043782 0.41013 0.1796
kor -0.26933 1.5569 0.43184 0.4008 -1.0112 -0.24582 1.0888 -0.36133 -0.37957 -0.30491 -0.42042 0.33582 0.33218 0.073144 -1.0313 0.49305 0.39599 0.27504 -0.12499 1.069 -0.70133 -0.26682 0.58568 -0.0040669 0.10507 0.034755 0.7873 -0.39658 -1.4273 -1.1448 0.22194 -0.27951 -0.01835 1.4352 0.19479 -0.2483 1.042 -0.57784 -0.079698 -0.52614 1.3234 -0.59184 0.46322 -0.42665 1.5563 -0.2372 0.25002 -0.48339 -0.02147 0.2569
short 0.08226 0.52026 -0.13314 -0.78449 -0.2366 0.58779 -0.4191 -0.39373 0.054773 0.012971 -0.62161 0.23175 -0.43722 0.499 0.39791 -0.28424 -0.051524 -0.32952 -0.88485 -0.35463 0.20174 -0.1279 0.61101 -0.31412 0.40172 -1.2991 -0.072569 0.61494 0.21407 0.032626 3.4835 -0.11963 0.45864 0.47906 0.22729 0.022899 0.22242 0.53241 -0.86963 -0.45325 -0.19527 0.35825 -0.08619 -0.0019633 -0.40885 -0.43347 0.66171 -0.022696 -0.34519 0.26502
ghs -0.39053 0.020992 0.12892 -0.90408 -0.7937 0.12969 0.98596 -0.94274 0.081188 0.019967 0.51387 0.18229 0.60993 -0.46146 -0.28212 0.31744 0.035442 1.0906 0.17775 0.040968 -0.40323 -0.68624 -0.32023 0.13165 -0.32367 0.67907 0.43716 0.45213 -0.84751 -0.33056 -0.38066 0.21689 0.605 0.009627 0.19375 0.55298 0.68096 -0.78971 0.46481 0.03623 0.2539 -0.43323 0.26506 0.52797 -0.22685 -0.093883 0.75848 0.72765 0.086331 -0.25238
light 0.0062958 0.47249 -0.073297 -0.0060334 0.36752 -0.22067 0.47872 -0.33874 0.091716 0.09293 0.40365 0.030591 0.29251 0.30817 -0.78066 0.32136 -0.69529 0.27155 -1.5156 -1.7707 0.35877 -0.11012 0.40589 -0.7165 -0.066692 -1.0795 -0.67795 1.0202 1.0186 0.29357 3.059 -0.023482 -0.10365 -0.82797 0.28177 -0.16825 0.20761 -0.085368 -0.46009 0.057375 0.33407 0.23124 0.054707 -0.34894 0.075528 0.53281 0.22283 -0.95259 -0.028099 -0.054563
register -0.64519 0.34077 0.49011 -0.184 0.2257 0.15886 -0.81471 0.26411 0.40576 -0.38199 0.15078 -0.30385 1.1211 -0.4697 0.1316 -0.025102 -0.65132 -0.66222 0.29226 -0.47396 0.63696 -0.7208 -0.045707 0.42804 -0.21018 -0.77715 -0.5654 -0.61442 0.048895 -0.42732 2.1234 -0.29407 -0.30894 -1.0439 0.11544 -0.21277 0.81569 -0.59079 -0.020419 -0.34556 0.11331 -0.83327 0.046535 0.38165 -1.0274 0.14186 -0.47057 -0.14221 0.65406 -0.29813
mnt 0.017394 0.47024 0.14729 0.53009 -0.092106 0.61402 0.80318 -0.56938 0.60114 0.31801 0.23589 -0.07508 0.40289 0.45077 -0.032182 -0.33536 -0.31508 -0.070217 0.44848 0.44017 -1.0893 0.0046865 0.42661 0.14784 0.074463 1.0469 0.45876 -0.39235 0.031038 -0.019086 -1.2706 0.93294 -0.41656 0.88606 -0.56578 -0.57173 -0.93052 -0.16444 0.092266 -0.30701 0.64164 -0.17914 0.58313 -0.12894 -0.34359 0.38132 0.63935 0.14386 -0.60242 0.26099
si -0.43988 0.85717 -0.18645 1.4274 -0.70887 -0.82996 1.0955 -1.0168 -1.2183 0.43887 0.37513 0.05718 0.27324 -0.73618 0.14606 0.13187 -0.23636 0.98965 0.30348 0.71801 -0.68433 -0.33748 0.40545 0.024596 0.47641 -0.26044 -1.0202 0.42107 0.068851 -0.65096 1.2047 -0.25216 -0.508 1.0584 0.017416 -0.47807 1.3003 -0.24427 -0.4892 1.1532 0.58019 -0.0035089 0.14985 -0.76883 -0.011965 -1.5139 -0.28964 -0.26055 1.0456 1.0905
truck 0.35016 -0.36192 1.505 -0.070263 0.32708 0.48106 -1.4825 0.07962 0.83452 -0.72912 0.19233 -0.90769 -0.89611 0.33796 0.42153 -0.47797 -0.47473 1.6142 -0.5358 -1.6758 0.64926 0.074053 -0.66378 0.66352 -0.11525 -1.46 -0.31867 0.99803 1.636 -0.11678 1.8673 -0.19582 -0.50549 0.82963 1.3381 0.33233 0.24957 -0.37286 0.2777 0.88405 -0.29343 -0.0033666 0.27167 -1.1805 0.53095 -0.31678 -0.3141 -0.31516 0.96377 -0.55119
deposit -0.10042 0.85335 1.0553 -0.075524 0.32111 -0.054008 -0.14894 0.50018 1.0467 0.21523 0.28849 0.43965 1.6852 -0.066131 0.248 1.1287 0.4447 -0.35577 0.23194 -0.22941 1.2546 -0.94265 0.28543 -0.81186 -0.96177 -0.6828 -0.074376 0.44191 0.059576 -0.22508 1.9038 -0.74969 0.17273 0.60873 0.58679 -0.11308 0.16663 -0.21229 1.1868 -1.1683 0.16645 -0.59866 0.72181 0.87078 -0.93332 -1.3857 -0.19226 0.65278 0.45686 -0.67817
african -0.40253 -0.16832 -1.2731 0.3717 0.47055 -0.094645 -0.67975 -0.9823 0.20803 -0.54781 0.72342 -0.19041 0.48002 -0.366 0.10517 -0.027328 0.82707 -0.061242 -0.42713 -0.3893 -0.66778 1.118 0.051591 0.13598 0.01337 -0.79305 0.40787 -0.76886 -1.2476 0.9837 3.1401 0.4212 -0.84241 0.065442 0.15264 -0.22553 -0.93922 -0.58294 -0.64352 -0.37126 -0.50493 0.369 0.98831 -0.76297 0.68617 0.87108 -0.57782 0.025938 0.015696 -1.2043
necklace 0.51942 0.89576 -0.97886 0.8696 1.269 0.64778 0.64301 -0.18313 0.93279 0.35256 0.061121 0.41425 0.50327 -0.4529 0.5586 0.34227 -0.23949 0.069538 -0.51964 -0.44075 0.41413 0.21321 -0.36914 -1.1307 -0.47645 -0.80532 -1.0605 1.1367 0.63309 -2.1805 -0.059599 -0.3845 0.21238 1.3623 0.43219 0.39513 0.069849 0.0084737 -0.36803 -0.26785 0.60123 0.56551 0.38443 -0.15074 0.050561 -1.2987 0.36042 -1.1668 -0.71216 -0.93139
wolves 0.082814 -0.34431 -0.52011 -0.69038 0.26585 0.16851 -1.3885 -0.24434 -0.024198 -0.17143 0.2365 0.36437 0.4902 -0.84983 0.21634 0.12429 1.8382 -0.41438 -2.28 0.43407 -1.3255 -0.61617 0.82286 0.35407 -0.59286 -0.3882 0.5493 0.37414 0.12852 -0.92299 0.67578 1.2405 0.057045 -0.51815 -0.022844 0.52484 -0.072169 -0.72427 -0.1208 -1.196 0.069074 -0.2149 -0.39897 0.16445 0.48723 0.18901 -0.10264 -0.14821 0.52677 -0.42321
se -0.48486 0.33217 0.16748 0.66329 -0.74907 -1.1789 0.37771 -1.266 -0.73194 1.0355 0.13898 -0.77037 -0.42159 -0.64445 -0.35993 -0.39328 0.28908 0.26872 -0.19223 0.3427 -1.0626 0.037375 -0.561 0.036011 0.074663 -0.48637 -0.74539 0.40949 0.074407 -0.52092 1.6845 -0.82816 -0.18773 1.9487 0.30606 -2.0054 0.79423 -0.23146 -0.16999 0.4718 0.41305 -0.686 1.5526 -0.84315 0.30997 -1.4168 -0.069985 -0.36579 0.98359 1.2313
wine -0.1145 0.75404 -1.6432 -0.61038 0.60352 -0.56396 -1.0069 -0.44103 0.61256 1.1812 0.18128 0.30032 1.1817 -0.62548 1.2156 -0.30738 0.54095 0.53758 -0.026086 -1.7387 0.46533 -0.62835 0.50936 1.1192 -0.74747 -0.57528 -0.9203 0.98612 0.29107 0.60208 1.9703 -0.27461 -0.34921 0.44141 0.64402 -0.32353 -1.4541 1.1472 0.86875 -0.074512 0.85632 0.59341 0.4655 -0.0387 0.26463 0.94151 -0.27335 -0.085403 0.12693 -0.23861
mexican -0.10578 -0.61572 -0.71352 0.62459 0.013654 -0.74904 -0.96229 0.28141 -0.4946 0.73022 0.66804 -0.29309 1.1325 0.69434 0.70203 -1.6439 -0.77271 0.11756 0.21676 -0.30839 -0.56221 -0.57085 -0.35009 0.44868 -0.86661 -1.5671 -0.24887 -0.033631 0.071665 -0.30745 2.5089 -0.39509 -0.72836 -0.14803 -0.28633 -0.14974 -1.5096 -0.13306 0.21047 -0.20309 -0.88249 0.87406 1.166 -1.001 0.025008 -0.52062 -0.60305 -0.40459 0.37712 -0.21723
malawian -0.71911 -1.0954 -0.51165 0.018291 -0.36796 -0.18409 -0.52225 -0.69007 -0.06466 0.80764 0.87785 0.014088 1.6418 0.29888 0.41115 0.22118 -1.242 0.079827 1.7621 0.46252 -0.64919 1.405 -0.70372 0.40936 0.085711 -0.4551 0.85922 -0.33174 -1.8168 -0.15019 0.15212 -0.16027 -1.0703 0.12785 0.64677 0.16129 -0.15313 -1.0735 0.3016 -1.2086 -1.0528 0.72457 0.19146 -0.27636 0.3004 -0.17299 -0.17106 -0.09749 1.0907 -1.316
shaku 0.47225 0.21191 0.05706 -0.33197 0.37608 -0.19431 0.974 0.28879 -0.27695 0.27489 0.57377 0.507 0.61865 0.2413 -0.080294 -1.0262 -0.215 1.3043 0.051239 0.7401 -0.60164 -0.38698 0.9131 0.055449 1.0613 1.0972 0.55997 0.12117 -0.19375 -0.24084 -0.36819 -0.73776 -0.0049955 1.2419 -0.33247 -0.23178 0.15119 0.31332 -0.33639 0.34761 0.005446 -1.4226 0.29708 -0.27804 0.39009 -1.3907 0.55947 0.021506 0.039103 0.55414
hectare 0.32851 0.9543 0.73877 0.47807 1.6428 -0.60582 -0.23543 -1.6279 1.0479 -0.14716 -0.52876 -1.0866 1.7184 -1.6747 0.731 -0.021085 1.0956 1.0174 -0.96723 0.70221 0.020022 -1.0434 0.45338 -0.74051 -0.18767 0.86322 0.80434 0.074649 0.5129 0.71039 1.2121 -1.5165 -0.23789 0.37101 1.0904 0.58602 -0.42652 0.82122 0.64807 0.28897 -0.043497 -0.69526 0.42302 0.53994 -0.089785 -0.75648 0.49321 0.30238 0.49479 -0.26861
beac -0.54926 -0.80705 0.15959 0.2877 -0.24763 -0.24567 1.4746 0.41791 0.13184 -0.96471 0.29661 -0.19426 1.1233 -0.36932 -0.50862 -0.043064 0.061453 -0.20734 0.41959 0.45447 -0.6747 -1.3761 0.029989 0.52178 0.044489 -0.15456 0.26049 -0.37023 -1.564 -0.63385 -0.99254 -0.28827 0.31392 -0.38045 -0.21614 -0.07054 -0.34169 -0.25869 -0.25525 -0.70301 0.29652 0.30765 0.84234 -1.0447 0.054153 0.32361 0.5906 -0.16125 0.34648 0.13726
milliliter 0.9899 0.0079154 0.65184 -0.70846 1.6746 0.27457 1.6586 -1.205 1.3818 1.1692 0.91812 -0.67856 0.63507 -0.32978 1.3314 -0.40313 0.0016728 0.55689 -1.1205 -0.91441 -0.22459 -0.88093 1.2326 0.29979 -0.75005 0.46592 0.38906 0.71767 -0.86191 0.033427 -0.3996 0.4071 -0.19486 0.55951 0.28172 -0.093475 0.91038 0.65116 0.8815 0.65478 1.0086 0.26225 0.25522 0.96964 -0.55925 -0.84593 0.77656 -0.17709 0.37492 -0.81072
meter -0.37698 1.307 1.4552 -0.040604 0.014537 0.0063586 0.56419 -0.75488 0.62979 0.154 -0.35453 -1.4407 0.54273 -0.031518 0.34798 -0.49425 0.36021 0.54759 -1.4534 -0.82942 -0.01734 -0.42396 -0.5479 -0.38235 1.1974 -0.27208 0.35045 0.19247 -0.092881 0.05729 2.3252 -0.52575 0.17736 1.0173 -0.50397 0.36998 0.91063 0.68642 0.34275 -0.21586 0.97031 -0.20261 0.34318 0.84069 -0.012616 -0.89963 1.2923 -0.9365 0.11046 -0.61757
kong -0.2069 -0.080423 -0.44305 1.0535 0.51837 -1.2366 0.11402 -0.78059 0.42304 -0.087544 0.49729 0.21777 0.46456 0.27774 0.38734 0.63329 -0.48893 -0.33702 -0.51106 0.73341 1.3944 0.069846 -0.51207 -0.33441 0.53586 -1.4327 0.48324 -0.74009 -1.2051 0.10297 3.2478 0.85417 0.89302 0.49303 -0.51997 -0.89693 0.27948 -0.17774 -0.70108 -0.30947 -1.1489 -0.0067018 0.88218 0.015205 0.42502 -0.60928 -0.77235 -0.92805 1.2585 -0.038
brain 1.236 0.063412 0.54417 0.13424 0.12046 1.7931 0.65165 -0.011122 0.87405 0.54081 1.189 0.1931 0.26508 0.62263 -0.14265 1.0268 -0.71484 -0.025693 -0.017131 0.72811 -0.57257 -0.027933 0.84742 -0.1485 0.99638 -1.0532 -0.60337 -0.041229 0.27335 -0.47829 2.6488 -0.067772 0.59438 -1.5526 -0.60759 0.84716 0.57738 0.54409 1.5652 -0.052741 -0.56669 0.048863 -0.94652 0.62236 0.84841 0.081286 0.95803 -0.34797 -0.093328 0.36927
paper -0.71216 0.028648 0.14848 -0.23793 0.25072 0.33656 -0.9906 -1.1897 -0.024259 -0.41926 -0.090202 0.16064 0.16936 -0.023698 0.31246 -0.013672 -0.80506 -0.22796 0.32495 -0.7812 1.2428 -0.27218 0.91784 -0.67886 -0.10611 -1.2105 -1.0284 0.96594 0.25269 -0.49446 2.8362 -0.92855 -0.12637 0.15115 -1.1247 0.16182 -0.019598 0.82145 0.47805 -0.19526 1.2688 -0.3549 0.15587 0.040564 0.32875 0.091115 -0.34785 0.5934 0.45267 -0.61026
vara 0.48532 -0.58879 -0.41861 1.174 -0.73129 0.060399 0.94914 0.23742 -0.25204 0.27265 0.44418 0.0046824 0.27816 -0.24628 -0.037498 -0.86139 -0.2619 0.7106 0.90892 0.3859 -0.53335 -0.08689 0.066823 0.32238 0.24358 0.9342 0.20955 0.063753 -0.75816 -0.20789 -0.36429 -0.29059 0.28687 0.70045 -1.3151 -0.014274 0.34858 -0.087722 0.47353 0.59027 0.6823 0.2141 -0.57232 -0.14227 -0.71622 -0.74724 -0.61217 -0.40379 -0.010382 0.34338
badger -0.14545 -0.20927 -0.31156 -0.58936 -0.29021 0.4331 -0.92655 -0.58886 0.29242 -0.84821 -0.38053 0.83379 0.65312 -0.25633 -0.29371 -0.22637 0.67744 0.33186 -0.98831 -0.020697 -0.34317 -0.49622 0.71672 0.22912 0.3408 -0.24916 -0.12602 0.17335 0.097656 -0.5674 -0.48037 -0.074616 -0.75343 0.17515 -0.046601 0.12327 -0.33699 -0.58061 0.23307 0.080938 0.092657 0.1514 -0.59323 0.11774 0.32724 -0.12961 0.35586 -0.2053 0.43583 0.14357
thang 0.0079198 0.32226 -0.78791 -0.62683 -0.15514 -0.2845 0.65109 0.09689 0.50672 0.13903 0.37352 0.50865 -0.55669 -0.24937 -0.078332 -0.69469 0.46885 0.63448 0.43615 0.45832 -0.92716 -0.50772 0.65144 -0.35769 0.14506 0.20799 -0.84644 1.1441 -0.011747 -0.62534 0.0075288 0.35231 0.33779 2.1238 -0.74152 -0.42113 0.23162 0.23191 0.42037 0.7739 -0.31618 -0.21888 -0.56708 -0.8083 0.11139 -1.8187 -0.19349 -0.67309 0.063678 0.68898
clf 0.39357 -0.33382 0.12307 -0.28324 -0.54613 0.11649 0.69135 -0.24151 0.24497 0.19836 0.51078 0.029288 0.12066 0.49951 -0.35035 -0.082331 -0.1774 -0.090115 0.94052 0.007538 -0.51987 -0.35479 -0.94844 -0.21232 -0.23594 0.85789 0.18366 -0.36386 -0.77134 0.077798 -0.58707 -0.26171 0.15545 0.88805 -0.78229 -0.030791 0.31856 -0.17218 0.38862 -0.21246 0.75453 -0.78322 0.48435 0.57459 0.51603 -0.50081 0.39565 -0.013401 -0.45235 -0.048939
labor -1.0408 -0.33298 -0.029981 -0.40867 -0.30621 0.51743 -0.57551 0.070567 -0.56426 -0.7333 0.13785 -0.64051 -0.0019387 0.19113 0.5597 -0.16138 0.32842 -0.392 1.1212 -0.80956 0.40635 -0.55274 -0.68909 -0.24757 -0.31941 -1.1801 0.36871 -0.72546 -0.051116 1.6135 3.0426 0.10059 -0.45175 -0.40093 -0.89664 -0.40497 -0.29098 -0.20273 0.60622 0.12074 -1.2019 0.045937 0.1029 0.14048 0.49142 -0.57373 -0.99358 0.34936 0.30422 0.60045
byn -1.4527 0.39596 0.067866 -1.1602 -2.23 -1.4226 0.73376 -0.58914 -0.3512 1.8918 -1.5095 0.65582 0.16962 1.1219 -1.5407 0.52838 -0.77426 -1.3553 1.5888 0.85432 0.24756 -0.9545 0.9425 -0.38856 -0.57385 -0.62901 -0.39915 -0.45662 -0.0241 0.34422 -0.6492 0.64215 -0.25734 3.2081 0.055925 -1.3488 -0.12209 -0.21866 0.080278 0.59593 -1.0585 0.44307 -1.1506 1.3614 2.6629 -0.25434 -0.38503 -1.3194 0.42344 -0.061332
imp 0.15967 -0.72418 0.17915 -0.041565 0.34164 0.36644 0.52146 -0.86143 -0.27274 0.71829 0.53192 0.14644 0.041475 -0.17083 -0.4773 0.00029725 -0.29228 1.1675 -0.65024 0.13413 0.069398 0.053105 0.045105 0.4015 -0.43061 0.24072 -0.44104 -0.13654 -0.23124 -0.38282 -0.59872 0.061769 -0.14394 0.46103 0.34938 -0.27419 -0.31405 -0.69174 0.75036 -0.15732 0.93635 -0.35683 -0.31627 0.1567 -0.15672 0.47896 0.78329 0.59068 -0.063511 0.1554
sgd 0.4378 -0.23744 0.59311 -0.28128 -0.0025139 -0.15524 1.0542 -0.467 0.13776 0.81037 0.096751 -0.20581 0.84443 -0.44225 0.31701 -0.35174 -0.39126 0.24499 -0.089193 0.54633 0.010212 -0.13594 -0.21384 -0.17194 0.20693 1.4685 0.52869 -0.70443 -0.33115 0.47765 -0.66224 -0.022297 0.58643 0.5633 -0.25909 0.15278 0.10105 -0.20146 -0.1368 -0.71292 0.6222 -0.62154 0.52915 0.67849 -0.47854 -0.39985 0.55975 -0.01195 -0.013017 -0.27185
gurley -0.93824 0.16087 -0.54217 -0.40838 0.60695 1.4801 -0.65247 -0.74129 -0.10722 -0.69047 -0.41679 0.93014 0.3583 0.33276 -0.50649 0.49506 -0.19576 0.032721 0.031369 -0.10684 0.56103 0.8426 0.10774 -0.50265 0.45453 0.53646 0.46922 0.80249 0.15829 0.369 -1.0797 -0.39296 1.2145 -0.085372 0.18723 -0.067901 -0.36056 -0.2461 0.64098 -0.74466 -0.16375 0.18559 -0.16244 -0.5411 0.15309 0.73708 -0.19089 -0.19712 0.46529 0.55535
covered 0.060018 0.75612 -0.21928 -0.16007 -0.22649 0.7068 -0.79424 -0.60981 0.41229 -1.0489 -0.31504 -0.4372 0.30431 0.25326 0.37445 0.2146 0.044599 -0.038809 0.13944 -0.81201 0.044274 0.17807 0.69836 -0.3157 -0.63237 -0.37578 -0.29215 1.4718 0.3666 -0.36132 2.8582 -0.74644 0.3198 0.029636 -0.44378 0.75967 0.28336 0.19005 0.26084 -0.087678 -0.11017 0.075037 0.5913 0.22489 -0.12529 -0.26946 -0.33783 -0.85843 -0.49003 -0.9095
